{"layers":[{"out_depth":1,"out_sx":32,"out_sy":32,"layer_type":"input"},{"sx":5,"sy":5,"stride":1,"in_depth":1,"out_depth":16,"out_sx":32,"out_sy":32,"layer_type":"conv","l1_decay_mul":0,"l2_decay_mul":1,"pad":2,"filters":[{"sx":5,"sy":5,"depth":1,"w":{"0":0.04852432690989709,"1":0.4128143079158152,"2":0.21330134080826446,"3":0.3909875553022214,"4":0.0790936057172081,"5":-0.37244125354592245,"6":-0.17814512489986395,"7":-0.22705747246809002,"8":-0.06133548620499641,"9":-0.1645022846384211,"10":-0.1365824904439905,"11":0.21164209308497572,"12":0.10300733413747026,"13":0.00991147124615488,"14":0.056484549793750054,"15":0.10884979250661068,"16":0.1760523591908819,"17":-0.24513613132757697,"18":0.19093439693262323,"19":0.04748290615888795,"20":-0.067396113431533,"21":-0.21661938412778317,"22":-0.2538445410429829,"23":-0.20737692973034513,"24":-0.08209381661253336}},{"sx":5,"sy":5,"depth":1,"w":{"0":0.11324582846099208,"1":0.12827998065016277,"2":0.04002258616490647,"3":-0.28145284665819365,"4":-0.0802353239677888,"5":0.13745577269307654,"6":-0.22400489104107826,"7":0.011181745021485709,"8":-0.3143599874824707,"9":0.27167699623695596,"10":0.05042908672710243,"11":0.07429507931489152,"12":-0.13612138652080094,"13":0.17940252416744976,"14":-0.2592891494011269,"15":0.0027192257922682636,"16":0.15452499964054367,"17":0.14882659090455871,"18":-0.10068500700391839,"19":-0.2527191952831212,"20":-0.24386273002992842,"21":-0.07815063108127725,"22":0.30830800173613526,"23":0.07960395759213164,"24":0.19879035981178395}},{"sx":5,"sy":5,"depth":1,"w":{"0":-0.028864124056004265,"1":-0.19571855032393679,"2":-0.1781330410242609,"3":-0.2744239444256036,"4":0.30331373010467627,"5":-0.19026326218313647,"6":-0.3438139652056411,"7":0.08666276269441045,"8":0.42583788368567216,"9":-0.12488521436626833,"10":-0.1698031039774665,"11":-0.18312692240038372,"12":0.06535045009305582,"13":0.4217803610455509,"14":-0.14491586144771837,"15":0.12655185347848574,"16":0.19064469787483626,"17":0.16836695239184968,"18":0.013166896024824546,"19":-0.10239637378527182,"20":0.2744809623548397,"21":-0.18569957559561734,"22":-0.02326190821626483,"23":0.05249579112381749,"24":-0.090110279225835}},{"sx":5,"sy":5,"depth":1,"w":{"0":0.20502063660978379,"1":-0.230385130626842,"2":-0.18035531760812998,"3":0.21929744332090864,"4":0.2818344283676892,"5":-0.14833374472399113,"6":0.38509601003594524,"7":-0.017634684692000427,"8":-0.07367714234878786,"9":0.10472204334978699,"10":0.11557579168442739,"11":0.04308065437805171,"12":0.4241247476249851,"13":-0.220143882612161,"14":-0.2021643276398816,"15":-0.1330777397340088,"16":-0.05012913369917226,"17":-0.02046489842962352,"18":0.12971901064951818,"19":-0.09644258436935339,"20":0.12715095938845455,"21":-0.10486934815493659,"22":-0.2198507811287796,"23":-0.16832158245851406,"24":-0.27113321749901637}},{"sx":5,"sy":5,"depth":1,"w":{"0":-0.1478498202478357,"1":-0.11205460098886867,"2":0.43574824040579563,"3":-0.06302495705309068,"4":0.38872122450232394,"5":-0.011911576474745583,"6":0.07266566716713496,"7":-0.242045892050602,"8":0.23369812908104143,"9":-0.2612397554520368,"10":0.0861846120012569,"11":-0.17393323032655456,"12":0.017432106940857155,"13":0.1249681293344523,"14":-0.09343037091002893,"15":-0.11247641171653747,"16":-0.10360757819820525,"17":0.15689052619293178,"18":0.24664544768200855,"19":0.10182209146422862,"20":-0.45408818634999915,"21":0.015530435271579286,"22":-0.19518048326315918,"23":-0.18077268938630509,"24":0.24010191724688024}},{"sx":5,"sy":5,"depth":1,"w":{"0":0.31770228096187014,"1":0.19294348167745598,"2":-0.21393778624500082,"3":-0.5584142060381982,"4":0.3327715887173385,"5":0.004244488582252963,"6":0.2707533016512184,"7":0.21567208105958777,"8":-0.04780731917098312,"9":-0.0711732418864826,"10":-0.25770363876375624,"11":-0.20771251873118857,"12":-0.08122538520227601,"13":0.06236272089491614,"14":0.02783881754792327,"15":0.15248788711549474,"16":-0.2325781881466185,"17":-0.06821997777809781,"18":0.37827222320473197,"19":-0.2573656736433794,"20":-0.3029404665796609,"21":0.03907364745728969,"22":0.23977205603243465,"23":0.1497889458868096,"24":-0.05186849587613169}},{"sx":5,"sy":5,"depth":1,"w":{"0":0.35881629022251366,"1":-0.1569829355399965,"2":0.10873639187771775,"3":-0.174192750936839,"4":-0.0005523855343791974,"5":0.6476111749777947,"6":0.18166853738246566,"7":-0.3239471905769215,"8":-0.08048382265386833,"9":0.15088896034367108,"10":0.23470821722673427,"11":0.0420957613050884,"12":-0.14352488776965666,"13":-0.11724561551342873,"14":0.01333175574261673,"15":-0.28913363557331195,"16":-0.006771894732161733,"17":0.10327766412044327,"18":-0.2461382638363751,"19":-0.00811600734604398,"20":0.1926651155206152,"21":-0.13962799359856035,"22":0.15507804879695397,"23":-0.25307244822962316,"24":-0.25251818606431475}},{"sx":5,"sy":5,"depth":1,"w":{"0":-0.07800844598964027,"1":0.0612777330662113,"2":-0.1582493042858523,"3":0.04088493834677682,"4":0.2549420707013682,"5":0.3979511336745149,"6":0.43845837264302334,"7":0.08157091380181766,"8":-0.29095882448325877,"9":-0.1529210796181348,"10":0.19112342662944998,"11":0.4532505689963213,"12":0.1346116945545911,"13":-0.07409248296250973,"14":0.2526210891141029,"15":0.10005133937805144,"16":0.034108418657666756,"17":-0.3782732488184809,"18":-0.44618843397718516,"19":-0.07062072950888905,"20":-0.06843103092958844,"21":-0.046084375992001346,"22":-0.34601929590441827,"23":-0.2674792962208404,"24":-0.2128358893570942}},{"sx":5,"sy":5,"depth":1,"w":{"0":-0.03519152585838153,"1":-0.2271652013839896,"2":0.25633095840722775,"3":0.09333744515979295,"4":0.2067710898079161,"5":0.002624930750282226,"6":-0.4040375907136964,"7":0.15059845531303798,"8":-0.10953469719081582,"9":0.38259528389369307,"10":-0.02526475754656082,"11":-0.047720646436461144,"12":0.12160090909707774,"13":-0.2857817212570517,"14":0.20368251867831336,"15":-0.1360645574331644,"16":-0.24022493508243167,"17":0.28763124900386267,"18":0.21502828595425433,"19":-0.21044176094038897,"20":-0.2406503499892146,"21":-0.3883105295778574,"22":0.17072544576418888,"23":0.023697521801260345,"24":0.13130484905771053}},{"sx":5,"sy":5,"depth":1,"w":{"0":-0.02866652364323621,"1":-0.016129016994369378,"2":-0.0054327534904179044,"3":0.08208298279773502,"4":-0.020896671355664868,"5":-0.10124295228979277,"6":-0.3280902510020434,"7":-0.10080868345522608,"8":-0.07804560417186705,"9":-0.24146982542500695,"10":0.2405315026296277,"11":-0.04201411363423745,"12":0.1589478239739863,"13":0.22667829668850467,"14":0.13826321204826192,"15":0.25172632882122153,"16":0.013398300877311116,"17":-0.1034184699391901,"18":-0.11755461272921514,"19":0.19738472751515956,"20":-0.07714399553836661,"21":-0.3874911787340432,"22":-0.05654945726860014,"23":0.1736833029473852,"24":0.517146490471207}},{"sx":5,"sy":5,"depth":1,"w":{"0":0.3999265380953138,"1":0.21742607489489033,"2":-0.0025734806025948993,"3":-0.06949824207959916,"4":0.34956440321173554,"5":0.4344352911209435,"6":-0.0006954293257798957,"7":0.00010957382595143796,"8":-0.06255358571030943,"9":-0.08744763639427347,"10":-0.14156586601604365,"11":0.1506847881622191,"12":0.057733861085422104,"13":-0.7466640638178018,"14":-0.29624089061622183,"15":0.12356170704168971,"16":-0.2795420891680237,"17":0.06656658588138416,"18":-0.18598597161807062,"19":-0.1658176115871487,"20":0.13373794901773628,"21":0.15053814653823566,"22":0.178379095150612,"23":-0.2591363218784613,"24":0.035422677062452924}},{"sx":5,"sy":5,"depth":1,"w":{"0":-0.11705510552707823,"1":-0.20496388537558183,"2":0.2017694589426865,"3":-0.0766849291785278,"4":-0.05875467954686183,"5":0.20063386954868415,"6":0.024722754676266164,"7":0.0050070104984420525,"8":-0.0691571680862278,"9":-0.3677511484965956,"10":-0.16243384620471457,"11":-0.2303301887969286,"12":0.374986701435499,"13":-0.0989685861896583,"14":-0.02364500610493476,"15":-0.046777662022962734,"16":-0.2004130930826317,"17":-0.23947365926660652,"18":-0.002394041181094906,"19":-0.22579622741825586,"20":0.2808807073918722,"21":0.2923608018239576,"22":0.5576781743358756,"23":0.20671152662780065,"24":0.08493173342615466}},{"sx":5,"sy":5,"depth":1,"w":{"0":-0.12434321628340975,"1":-0.3194561416713159,"2":0.041214798088928334,"3":-0.14148349380885214,"4":-0.04424252267722972,"5":-0.1549515448918783,"6":-0.4636113036173919,"7":-0.5174449076324971,"8":-0.42709544880382233,"9":-0.1625360616732785,"10":0.22254190389684989,"11":-0.03291410059165512,"12":0.10689197427590076,"13":0.09408636559129871,"14":0.4106247443907678,"15":-0.15859535814485817,"16":0.024469983066278848,"17":0.06340438424888885,"18":0.05618954657919304,"19":0.21229334115444334,"20":0.2004233345404123,"21":0.39033205327561404,"22":-0.08374691334522152,"23":0.3056247501931074,"24":0.45946675363914713}},{"sx":5,"sy":5,"depth":1,"w":{"0":-0.34687745302055273,"1":-0.3130343946086257,"2":-0.2757946360879139,"3":-0.08477293534749968,"4":0.02709534536519315,"5":-0.17273828399049693,"6":-0.21884791298993433,"7":0.38133381937424743,"8":-0.39559121736984987,"9":-0.27840425857577245,"10":0.2056517476473359,"11":0.41671891459748167,"12":-0.14555789929414154,"13":0.039777043591594716,"14":0.3842114866710092,"15":0.43286130541948964,"16":0.5128864701757844,"17":-0.07395576276123692,"18":-0.04208182615121816,"19":-0.15808294553769237,"20":0.16340955711771152,"21":0.06116037828253343,"22":-0.15237517947735968,"23":-0.0020685377904435644,"24":-0.09828608160749855}},{"sx":5,"sy":5,"depth":1,"w":{"0":-0.23122031063532356,"1":-0.04107404536620247,"2":0.36368276413809064,"3":-0.008007180602764282,"4":-0.1806659931575641,"5":0.32333145534250146,"6":-0.07245858429968974,"7":0.133591123792905,"8":0.06707613126464454,"9":-0.3645901981929322,"10":-0.21922675876948275,"11":0.5042435274547277,"12":0.03221956630546401,"13":0.1694316662877453,"14":-0.4785990014494911,"15":0.032472566509310255,"16":0.269316620525043,"17":0.025191846380961787,"18":0.08582412899866779,"19":-0.3830411272181545,"20":-0.0086924011806345,"21":-0.05538644427744035,"22":0.24634923782755608,"23":-0.23503568658023263,"24":0.02205569627117938}},{"sx":5,"sy":5,"depth":1,"w":{"0":0.22934293092725153,"1":0.21421098275927508,"2":0.04750922135852695,"3":0.04468077666110053,"4":-0.30265890647190186,"5":0.014856695497453791,"6":0.4612134045115829,"7":-0.15902799990933258,"8":-0.008843197209310387,"9":0.2611626045588578,"10":-0.06559597691285414,"11":-0.02197583350633321,"12":0.017098594773652845,"13":0.06916209416754372,"14":-0.07107901979054558,"15":-0.11002194407411975,"16":-0.17416570056868466,"17":0.16901915568697928,"18":-0.06570928028197544,"19":0.00039438405506099527,"20":-0.30754148501248907,"21":-0.34780045551884176,"22":-0.010260689799615462,"23":0.12417847572255834,"24":0.3115973258652348}}],"biases":{"sx":1,"sy":1,"depth":16,"w":{"0":0.1918357316213111,"1":0.05326176490332774,"2":0.22177452021903366,"3":0.28241761376061836,"4":-0.02439867494682692,"5":-0.052439412147014745,"6":-0.03480735236913001,"7":0.06315361137347497,"8":0.022381721101248794,"9":0.048666329157334105,"10":0.13219583482457034,"11":0.1316706107073184,"12":-0.004983617556201262,"13":0.1096973637401135,"14":-0.030957289095840116,"15":0.1992897470974843}}},{"out_depth":16,"out_sx":32,"out_sy":32,"layer_type":"relu"},{"sx":2,"sy":2,"stride":2,"in_depth":16,"out_depth":16,"out_sx":16,"out_sy":16,"layer_type":"pool","pad":0},{"sx":5,"sy":5,"stride":1,"in_depth":16,"out_depth":20,"out_sx":16,"out_sy":16,"layer_type":"conv","l1_decay_mul":0,"l2_decay_mul":1,"pad":2,"filters":[{"sx":5,"sy":5,"depth":16,"w":{"0":0.037468556593618904,"1":-0.2568001623464131,"2":-0.2469947833038341,"3":0.09196517145152941,"4":-0.14909698436208116,"5":0.01434406777071829,"6":-0.019618614548776673,"7":0.08945044143869724,"8":-0.17258759472661103,"9":0.04461573265448783,"10":-0.014270923031602845,"11":-0.30047173463082527,"12":-0.12150685086927712,"13":-0.1968557531814151,"14":0.027454092116076908,"15":0.01755365071355973,"16":-0.012702196215870496,"17":-0.1388849991582648,"18":-0.20887926201250517,"19":-0.014679499912890128,"20":-0.10067765406918776,"21":0.08957184158395226,"22":0.05362841234066816,"23":0.11289749862813639,"24":-0.008067265105520654,"25":-0.007345828293104188,"26":0.03186935590874363,"27":-0.06643081414916009,"28":-0.025090964555402148,"29":-0.1338026400284513,"30":0.05173439269068582,"31":0.11105176834590985,"32":-0.1402895455645424,"33":0.04331148352256381,"34":-0.011886397089185262,"35":-0.09970873407725288,"36":-0.0553173064881159,"37":0.16070454567876735,"38":-0.0018543374514629135,"39":-0.02118414794012508,"40":0.01639793646281708,"41":0.10644695038452719,"42":-0.06630158751430798,"43":0.10061680268299238,"44":0.056198389764522134,"45":-0.128553760766237,"46":-0.014787806660838546,"47":0.04565059439290467,"48":-0.17272913837821605,"49":0.08654324931085915,"50":0.11214862950889716,"51":-0.0024270087553584963,"52":0.03659572400240036,"53":0.19927772381859238,"54":0.022135011299498353,"55":-0.03563021412345516,"56":0.05586992474300281,"57":0.0028766144790138165,"58":-0.05389925892854646,"59":0.09405034957093206,"60":0.09810010611404975,"61":0.061961851089037026,"62":0.02483760278606737,"63":-0.026381082792881788,"64":-0.18412381254301352,"65":-0.016351937417201888,"66":0.06541883498531202,"67":0.026995496400288758,"68":-0.12560726359132812,"69":0.11103399706588446,"70":0.03131765487989952,"71":0.11383101210775841,"72":-0.18452358067575111,"73":-0.13468440487721337,"74":-0.03898404868030442,"75":0.028102771882702923,"76":-0.051168909569944576,"77":0.11962912672813487,"78":0.05985201435352313,"79":-0.11756613900499863,"80":0.1164252444862293,"81":-0.1919229340781054,"82":-0.06504694009282641,"83":-0.040196426462066,"84":-0.10212134993304471,"85":-0.224941161279396,"86":-0.0819921810152382,"87":-0.09440315216006101,"88":-0.061092959248673535,"89":0.024234292459303964,"90":0.004542908159903808,"91":-0.008842931390162638,"92":-0.033030022583346,"93":-0.024997600681135653,"94":-0.1104981675937215,"95":0.04754016523753998,"96":-0.04676165254324915,"97":-0.02419640358662536,"98":-0.0819966079757417,"99":-0.02145218721769697,"100":0.06964365195213644,"101":-0.1426445684119346,"102":0.003409385435974638,"103":-0.0880783959774696,"104":0.12100372813702534,"105":0.04171577080754579,"106":0.047690474865369786,"107":-0.03652298244721423,"108":0.04562947440939253,"109":-0.09246627550778314,"110":-0.008126941933807159,"111":0.10928953752681864,"112":-0.021363752572469162,"113":0.07189830281149155,"114":0.16738125827787367,"115":-0.0709919889969187,"116":0.1460008137608393,"117":-0.07406995359000516,"118":-0.057539229296983,"119":-0.16048163096024495,"120":0.13453319661143323,"121":0.041689901407457035,"122":-0.08951051554419691,"123":0.024156979653062828,"124":0.030682870078331252,"125":-0.12225674680418436,"126":-0.1312248912129597,"127":-0.009198425797126023,"128":-0.07838344518303622,"129":0.02975748625377102,"130":0.10698329760815224,"131":-0.017025067075476918,"132":0.1446634509891179,"133":0.14489913841255206,"134":0.035577135300822335,"135":-0.029018215597597364,"136":0.049172774952772134,"137":0.029772204409663165,"138":-0.13471277904878454,"139":0.029959679262458107,"140":0.019261931833876856,"141":0.03882067562048977,"142":0.12501690192462045,"143":-0.14252920142453337,"144":-0.08323120078066164,"145":0.02006385283594043,"146":0.005762629962211357,"147":0.11610650156248314,"148":0.009664666676212543,"149":0.10941157628199777,"150":-0.010544845369318377,"151":-0.008188611623464228,"152":-0.1312994214914155,"153":-0.01774690087393693,"154":0.03251675831647173,"155":0.02871866625100401,"156":0.03916453424663022,"157":0.175624418290416,"158":0.07912072594340026,"159":0.0013667507644658705,"160":0.10994438681577062,"161":-0.056827731678179255,"162":-0.07074748094612296,"163":-0.03394591359437173,"164":0.005921080338556637,"165":-0.08810630337709212,"166":-0.10752282081583596,"167":-0.12539315654251246,"168":-0.034837599650619805,"169":-0.015271317404658298,"170":-0.11041784015312442,"171":0.04155661595226053,"172":-0.09114186563809895,"173":-0.06872906457846391,"174":-0.09817752952423223,"175":0.06779341627394044,"176":0.05440168038705466,"177":-0.05163510599453546,"178":-0.00041197722730185274,"179":-0.06866022960235078,"180":0.07554698382171518,"181":-0.16532468153954258,"182":0.013387566424891166,"183":-0.1699549735103906,"184":0.0912504005653511,"185":0.03974768332628976,"186":-0.04186141076527937,"187":0.02112122472469871,"188":0.07683389536226808,"189":-0.0719088350362671,"190":-0.07450385332369568,"191":0.04591511822600177,"192":-0.02885583961135705,"193":-0.06327403018549728,"194":0.022353189330429735,"195":-0.018635525284791822,"196":0.09667714413366625,"197":-0.0018455464314309712,"198":-0.033745359665908435,"199":-0.2208151922770458,"200":0.24579813708861553,"201":0.03628285315586075,"202":-0.2576646441644399,"203":-0.002411478566346576,"204":0.12863808616291628,"205":-0.105609967301552,"206":-0.02790690864494449,"207":0.050076320144206855,"208":-0.0047757091978452345,"209":0.04562210246181385,"210":-0.00902319592961197,"211":0.1546027575778796,"212":0.07647063847632891,"213":0.12952091478143604,"214":0.023208417553139557,"215":-0.02888787259680629,"216":0.026043497303311746,"217":0.05580634590378946,"218":0.07534362296938285,"219":0.010276922697399346,"220":-0.04332401882364791,"221":0.07017137095671527,"222":0.1958247166997913,"223":0.09275552705312053,"224":-0.04642888822031394,"225":0.06764824033174122,"226":0.08648849514304627,"227":0.1076294126951677,"228":0.008433726083869412,"229":0.17296929495053154,"230":0.1842495370264412,"231":0.18926975700597262,"232":-0.06879360074756241,"233":0.10485197339940082,"234":0.08052254662400149,"235":-0.050992861221119117,"236":0.059286195041868626,"237":0.08474130494900765,"238":0.18817839511773032,"239":0.0499279649444524,"240":0.05818546290291457,"241":-0.10543557970485626,"242":-0.06408769318812006,"243":-0.03802853007466369,"244":-0.04506179737933934,"245":-0.05495489465090806,"246":-0.16335586593930757,"247":-0.12333229977350478,"248":-0.01277648852251701,"249":-0.10900722889351437,"250":-0.1029925577638737,"251":-0.008563480776646596,"252":-0.008410862354456409,"253":-0.09983714618977861,"254":-0.1379783072736505,"255":-0.06540486636020248,"256":-0.012003748931935593,"257":-0.05439131863651395,"258":-0.032110771224157404,"259":0.039195033879681734,"260":0.06383623541048347,"261":-0.119637485263401,"262":-0.04852838366817098,"263":-0.0998600969172988,"264":0.23426790505288606,"265":-0.0311553216309263,"266":-0.017562499387977853,"267":-0.011063826793310604,"268":0.09713754931180427,"269":-0.07726425812928168,"270":-0.006246770445495854,"271":-0.09354167617315837,"272":0.11620264980962863,"273":0.03650823334285748,"274":0.07707814978935465,"275":0.07361450456480434,"276":0.17819575025348458,"277":-0.009374907313304872,"278":-0.01549239271685147,"279":-0.09186324291233186,"280":0.2929915652958558,"281":0.11558128498812192,"282":-0.1387422303885625,"283":0.009431067886913882,"284":-0.0016311845082377418,"285":-0.12000896140900993,"286":0.029296860357210703,"287":-0.014820340177327114,"288":0.13285632465009764,"289":0.05008272162153482,"290":0.06545363800714186,"291":0.1400303671695947,"292":0.22287992328409442,"293":0.13452443218552326,"294":0.08396901896678317,"295":0.06518128282247825,"296":0.00030833101876800783,"297":0.033696831095081675,"298":0.02828482885103731,"299":-0.002727363046107389,"300":-0.11209330664081214,"301":-0.0032543537093533753,"302":0.16215040743494055,"303":0.09655862289961815,"304":-0.05330286849589283,"305":0.14076477790693168,"306":-0.016122993918984824,"307":-0.012517714825767716,"308":0.024820868699131342,"309":0.1989896537871996,"310":0.0761223255764433,"311":0.03621342663427369,"312":0.052497432059672056,"313":-0.015638897386510142,"314":0.09305939480356355,"315":0.0039105636751143764,"316":-0.08992835342802614,"317":0.023401593753102055,"318":0.034560920913484616,"319":0.1747457131168486,"320":-0.03172695792166536,"321":-0.14750804188027047,"322":0.013162148256845212,"323":-0.1096425134484749,"324":0.003622838720183717,"325":-0.014491403633529312,"326":-0.06326622907620957,"327":-0.15999836526106784,"328":-0.08927893376890697,"329":-0.03377782222826249,"330":-0.186134775366539,"331":-0.032267437940410995,"332":0.030969563769114545,"333":-0.02845375820542262,"334":-0.11758160550811926,"335":-0.08585201667905953,"336":-0.005290704274607311,"337":0.023597605477982123,"338":0.04415953166210709,"339":-0.03398542884389073,"340":0.0029314593614877702,"341":0.028689506086174002,"342":-0.04285453682609506,"343":-0.06794508477443527,"344":0.15006667839277532,"345":-0.01636721883659763,"346":-0.03580912684488539,"347":0.037868316338579365,"348":0.13797566460143415,"349":0.014472369742962973,"350":0.03934394770390998,"351":-0.05311457795961742,"352":-0.019746925624102175,"353":0.08971667248334744,"354":0.10018970700142593,"355":-0.01601665509327613,"356":0.1058422279751573,"357":0.20813945327519048,"358":-0.1035828377736612,"359":0.05564982094386804,"360":0.12164915321318966,"361":0.06598902172311044,"362":-0.10616640690040695,"363":0.04886844322669073,"364":0.13271857070271406,"365":-0.0007106948865610215,"366":0.11333847548010907,"367":0.08712254940926903,"368":-0.053674622952173165,"369":0.15210994699506827,"370":0.07075725647290967,"371":0.14682544346016513,"372":0.05154408473924333,"373":0.23003559163467333,"374":0.10383017411644618,"375":0.006046761641277894,"376":-0.00398287541913442,"377":-0.040668954449719234,"378":-0.011605712183872017,"379":-0.06350287491645462,"380":0.02293415277744521,"381":0.11873809899819093,"382":0.06495655524027198,"383":0.13956414698466998,"384":-0.1689321503214991,"385":0.12121469768974785,"386":0.05500249727472272,"387":0.11896270537121059,"388":0.008712608026063834,"389":0.14562057147529225,"390":0.14500152880057884,"391":0.06120579313284843,"392":0.02259417619347156,"393":-0.14205873283324807,"394":0.0066893621494222705,"395":-0.047757486307045974,"396":-0.07744793964187764,"397":0.004215130056687336,"398":0.08554372059570788,"399":0.09496730337614685}},{"sx":5,"sy":5,"depth":16,"w":{"0":-0.07144372173933167,"1":-0.0581582224336743,"2":0.018367051602510353,"3":-0.08876048317539627,"4":-0.09007200620553453,"5":-0.08674151601888569,"6":-0.054054271731151515,"7":-0.12517093268035961,"8":-0.07748984843317384,"9":0.07144126771297693,"10":0.09800677409969845,"11":0.1643409092519279,"12":0.057216173224838025,"13":-0.04854601542783739,"14":-0.08930447520197085,"15":-0.06352077787043499,"16":-0.11222888221388702,"17":0.054698069684689266,"18":-0.02816794575214645,"19":-0.1610701999939536,"20":-0.05871152631935839,"21":0.05974375624453984,"22":-0.04885322162656095,"23":-0.055047999837003495,"24":-0.07478591054369281,"25":-0.006819848231413625,"26":0.07819412936396442,"27":0.15315483383119297,"28":-0.16480369110239257,"29":-0.0782053645463985,"30":0.11994964987454076,"31":-0.04880632918203318,"32":-0.07230750665946283,"33":-0.09668518076220113,"34":-0.12067683415759171,"35":-0.12494498520036497,"36":-0.13919619054765517,"37":-0.06088021974012337,"38":0.05415235848971347,"39":0.06030220333024852,"40":-0.08428049272009062,"41":0.02920880545199249,"42":0.16888369878396733,"43":-0.016275643025099592,"44":-0.00435976676476449,"45":0.11630251717869992,"46":-0.12813727652207013,"47":-0.10207516362749225,"48":-0.05205199164215583,"49":-0.19845782699938957,"50":0.0853362641913163,"51":-0.0746196760761733,"52":0.005395176044074781,"53":0.034410938811410746,"54":-0.13398364417587552,"55":-0.16903975076538597,"56":0.11883991991207042,"57":0.15422788445097257,"58":-0.01694519541876966,"59":0.11508384600177979,"60":-0.03409964150697018,"61":-0.13397107312938064,"62":0.03005259804267444,"63":-0.061725311102909526,"64":0.0461852299804305,"65":0.024550342731331474,"66":-0.07505145850750067,"67":-0.0803644254132557,"68":-0.10012199722653523,"69":-0.006668239255648387,"70":-0.02623880891989159,"71":0.13066862539054133,"72":-0.15794467003694568,"73":0.06514193597528084,"74":0.0644070533170342,"75":0.07274956000737902,"76":-0.037850660157426254,"77":-0.028084081170642223,"78":-0.08453453283514972,"79":-0.06862261079031187,"80":0.15279251482094933,"81":-0.11501632256772973,"82":-0.07194972433836991,"83":-0.008373410882704142,"84":0.053334095298230556,"85":-0.18643011210865437,"86":0.007168596155718337,"87":0.09841112900985015,"88":-0.001677548147475375,"89":0.16324605495987016,"90":-0.028899100506761494,"91":0.04113892437492077,"92":0.08506418441927611,"93":-0.014780380904367067,"94":-0.04989293911272108,"95":0.07382139493747748,"96":0.15982413050616587,"97":0.02653240944632125,"98":-0.037468456903331594,"99":0.14495764623188698,"100":0.06727194988606365,"101":-0.144287074329123,"102":-0.09134771782954011,"103":-0.029184123462939474,"104":0.05472521542620997,"105":-0.010317577273827918,"106":0.004616920817767771,"107":0.039195336637669304,"108":-0.049299451998254744,"109":-0.02778886360506492,"110":0.1907719017262304,"111":-0.10745570687393262,"112":0.16169003169112328,"113":-0.11386443859619289,"114":-0.15294133677477514,"115":0.000051806337646783795,"116":0.08571147837698093,"117":-0.35481129656448623,"118":0.0009244471842069948,"119":0.05229191913466178,"120":0.02971582035748844,"121":-0.005462820811839978,"122":-0.0452396552802496,"123":-0.07855536978886675,"124":0.008954400713452507,"125":0.16438636890013755,"126":-0.13608782491763521,"127":-0.027416683920279825,"128":0.12033744775516335,"129":-0.1373943717051428,"130":0.11442370236198578,"131":0.042765252245944886,"132":0.13769978458680762,"133":-0.18991800339616102,"134":-0.06147837860019716,"135":-0.0199880389151095,"136":0.048040163728887496,"137":0.03926699317396752,"138":-0.1461991423579834,"139":0.04144010787676307,"140":0.13182711661601668,"141":-0.025110777232950805,"142":0.025090038827767894,"143":0.0347147885196099,"144":0.2366464448844811,"145":-0.11550009822515002,"146":-0.19562092567261,"147":0.05713843981949876,"148":0.042370606745858796,"149":-0.3458250523412955,"150":0.09216725408996836,"151":0.14780756288934385,"152":-0.017731185371355797,"153":0.02400369571556051,"154":0.049662594716096076,"155":0.014303263803900276,"156":-0.01930937156750151,"157":0.04839278350961568,"158":-0.018128026092817714,"159":0.027357764672599146,"160":0.001574324037115327,"161":-0.09220683497989984,"162":-0.07107940519723946,"163":-0.015337240451062694,"164":-0.095255165108914,"165":0.02455757943831992,"166":0.07632366679807273,"167":0.061232383117381384,"168":-0.0016184906284840053,"169":0.06897147091702331,"170":0.09289755605941499,"171":-0.05630692307113071,"172":0.04886865733028836,"173":-0.2419381130074674,"174":-0.0480574417182333,"175":0.04796051279181412,"176":-0.038900215906441604,"177":0.0745476211781876,"178":-0.027143490213633638,"179":-0.008398108413445977,"180":-0.030479101390354868,"181":0.05798602797344105,"182":0.030962812698600024,"183":-0.0541566736956689,"184":0.06711351768833596,"185":0.03816124990560933,"186":0.03228902806520884,"187":0.11996203176432392,"188":-0.13232891714996745,"189":-0.25526121242116345,"190":0.07558131937993898,"191":0.004262873227465368,"192":-0.04426901983374579,"193":-0.15393483212416265,"194":-0.33249291342724446,"195":-0.043553301463354455,"196":-0.1496974727320712,"197":-0.04115416320245479,"198":-0.026131299941478853,"199":0.09493513289933046,"200":-0.08186135378043656,"201":0.00418304637401275,"202":0.14562087872309726,"203":-0.11140896088712252,"204":0.07852124772235673,"205":-0.04969228437376856,"206":-0.06844747946398887,"207":-0.04191751465853699,"208":-0.02363066644754052,"209":-0.17808220793750373,"210":-0.0010505596644638353,"211":-0.10229701153354373,"212":-0.11875789365030733,"213":-0.04989549689573432,"214":-0.10858392721209789,"215":-0.017973581934380752,"216":0.13062348930464066,"217":0.0332673891697061,"218":-0.018212386112124623,"219":0.1069746387606289,"220":-0.008730039227124271,"221":-0.2956824769180586,"222":0.030540555040799146,"223":0.002465542424794679,"224":0.05670394201388387,"225":-0.1371588492963705,"226":-0.3480018686927349,"227":-0.03165673243670291,"228":-0.12207499009246903,"229":-0.00414109242872002,"230":0.06451582695025676,"231":0.03157043641503348,"232":-0.041780933030704466,"233":-0.07267824038329582,"234":0.12003141573211623,"235":0.009152807758681039,"236":-0.07886957314918132,"237":-0.005372849589362908,"238":0.040811949564007466,"239":0.0303693545954991,"240":0.061407182393845544,"241":-0.08850080165499268,"242":0.008854917686345914,"243":-0.07112820036338811,"244":-0.013928884899695092,"245":-0.28332786381703917,"246":-0.06601002859512282,"247":-0.04658783530856942,"248":-0.015209941423233347,"249":0.0974388469028114,"250":0.07192603303328919,"251":0.10911619032268029,"252":0.13408317967654973,"253":0.08344938402360416,"254":-0.1544120804530873,"255":-0.0671451673520028,"256":0.061459103184142834,"257":0.0518624616569529,"258":-0.040478351320602166,"259":-0.10005821891923732,"260":-0.00726494856213835,"261":-0.2747804812460111,"262":-0.06293247750768331,"263":-0.03729579628740912,"264":0.037574131534422094,"265":0.036201296738708914,"266":0.03002577704669263,"267":0.1825242582234996,"268":0.06276272431677535,"269":0.07762812825135816,"270":0.07834637724193819,"271":-0.1290972611745259,"272":0.09007817014429806,"273":-0.11069553511117977,"274":-0.06404372986754876,"275":-0.11993831008828365,"276":0.004776734801779012,"277":-0.39803723135147717,"278":0.07040760167866353,"279":0.13457130259320305,"280":-0.007752789248754059,"281":0.024764219350144005,"282":0.06689180862757102,"283":0.015069689403804676,"284":0.13757379314234108,"285":0.0769787862867322,"286":-0.03216156970939262,"287":-0.09470188152475037,"288":0.11464935741741594,"289":-0.00950451726868013,"290":0.08150097136099822,"291":-0.06394329021771976,"292":0.10877134048951788,"293":-0.37855542445022144,"294":-0.22418949045623524,"295":-0.1174630759437751,"296":0.07103419190460669,"297":0.12604620557648732,"298":-0.03370141921597862,"299":0.11107886796341442,"300":0.12099217430417533,"301":-0.012644096867560043,"302":0.05586279141204592,"303":-0.06362932642788705,"304":0.08205495918499245,"305":0.056471673024888806,"306":-0.07446112337842387,"307":0.008937506780225226,"308":-0.023403010942634347,"309":-0.3013743923469223,"310":0.01904721780349836,"311":0.14909783705908472,"312":-0.1593049269716703,"313":0.011375402229460879,"314":0.08366782338385273,"315":0.020289079784040737,"316":0.11805687295890481,"317":0.15868103644251152,"318":-0.03039765737008091,"319":-0.1054997549223652,"320":0.11425625165247696,"321":-0.08988164789579091,"322":0.022297713783403398,"323":0.026609715370972106,"324":-0.05801032136255742,"325":-0.11124815194363769,"326":-0.010048351620966421,"327":0.023788326669717384,"328":0.04591852289624884,"329":0.10188106890298607,"330":0.026108428066248406,"331":0.021229250334458476,"332":0.056986442962240806,"333":0.013020069286923728,"334":-0.12168584725810236,"335":-0.013380737975950357,"336":0.05430652505074453,"337":0.03083610550988839,"338":-0.009985356386351773,"339":0.04850936490285157,"340":0.0900748232074267,"341":-0.12109207907772652,"342":-0.08497217059901264,"343":-0.018356864349917415,"344":0.014742275994214245,"345":0.04198994003164666,"346":-0.037129121234400264,"347":0.06740381230012976,"348":-0.017859755891247203,"349":-0.001999088329543261,"350":0.14079185254031407,"351":-0.021005395677931592,"352":0.16345454718881558,"353":-0.11843737365772117,"354":-0.15686662739281343,"355":-0.06831094161168372,"356":0.014239722228694076,"357":-0.14374956872244227,"358":0.11983916811742905,"359":0.06893970884515044,"360":-0.005960641158762744,"361":0.03365831844998132,"362":0.17387214559551178,"363":-0.08208502358669434,"364":0.07428345662069687,"365":0.11925744829801417,"366":-0.11102037579208769,"367":-0.0424735278777259,"368":0.08220038650252483,"369":-0.08670210470664737,"370":0.04844894054571818,"371":-0.04397830378238502,"372":0.10444827169843048,"373":-0.20240559001475633,"374":-0.04852764532656558,"375":-0.05096228962680603,"376":0.10095811107327302,"377":0.014265388590960538,"378":-0.056775552644103854,"379":0.061569906264087176,"380":0.08332293035935326,"381":-0.11558111546133909,"382":0.059351190658711604,"383":0.07631429699628367,"384":0.2559971122510649,"385":0.0138894256002054,"386":-0.14826933976750073,"387":-0.11608030534790827,"388":-0.1555143133509177,"389":-0.08242405892704308,"390":0.05140225351767835,"391":0.15533263873959255,"392":-0.04585396792997576,"393":-0.048649784290703255,"394":0.1365864523039451,"395":0.05195163455303261,"396":0.06499712230562382,"397":0.05828540154164512,"398":0.03235266668724772,"399":-0.05870202242370653}},{"sx":5,"sy":5,"depth":16,"w":{"0":-0.04400678159724362,"1":0.03951295182814015,"2":-0.054660059054434655,"3":-0.08870279060535916,"4":-0.028538879947961466,"5":0.09312921037642806,"6":-0.09320161150546606,"7":-0.13132411696855883,"8":0.035655690164318625,"9":0.10188964457782075,"10":-0.03484972538705804,"11":0.0531718556490671,"12":0.1246522327070982,"13":-0.07220577565971552,"14":-0.07408099443311526,"15":0.019253677405989315,"16":-0.13922633005457918,"17":0.1615795225997519,"18":-0.0024790982613518107,"19":-0.059671401358686406,"20":0.2103781332953328,"21":0.2660459297138442,"22":-0.03967051499616824,"23":-0.07140559833614958,"24":0.07101437804045381,"25":0.034262212481947246,"26":-0.07641869427773086,"27":0.09059773010890672,"28":0.20418976735486077,"29":-0.06985445037577873,"30":0.024358303285683183,"31":-0.003292253047686532,"32":0.06801579175875447,"33":-0.008370076306005636,"34":0.10078069924780769,"35":0.0630572124713869,"36":0.22031445008279088,"37":0.2107922314723104,"38":0.010054407607446952,"39":0.03223386685343445,"40":0.05198990505227182,"41":-0.012154052484314564,"42":0.0411385807309963,"43":0.0939159395782544,"44":0.0408985898665251,"45":0.16229983018121158,"46":0.09240269764001509,"47":-0.1321271616541538,"48":0.07388043921381571,"49":-0.05020536651243029,"50":0.039088019040796826,"51":0.12769740704647423,"52":0.20471525384002415,"53":0.15094511739401148,"54":0.1854724119087792,"55":0.1317175640092451,"56":-0.021735169942260883,"57":-0.016192500690824552,"58":0.09618879458332634,"59":-0.06899273450950301,"60":-0.0769675738416531,"61":0.06415039139912393,"62":0.04071848543028564,"63":-0.05586523829503063,"64":0.15564657596883444,"65":-0.04495602685640044,"66":-0.17032548255079322,"67":0.13567969187003695,"68":0.21227160309131748,"69":0.14288204566147597,"70":0.11982212560308214,"71":0.1618938034060944,"72":-0.028594189969686833,"73":-0.003655928182201599,"74":0.12430756111365174,"75":-0.10794613834966463,"76":-0.07259565406142841,"77":0.0030965614716349046,"78":0.02725440827250102,"79":0.17217086055795766,"80":-0.1530149287692044,"81":0.03497189560409422,"82":0.10817315794999362,"83":-0.16126498080458604,"84":0.004148022068228307,"85":0.13030095923235036,"86":-0.0623341233824348,"87":-0.04398519174962583,"88":0.02309601604612342,"89":0.004874653196022932,"90":-0.12204501083411236,"91":0.13671373684998694,"92":0.29112074497313867,"93":-0.022020059507216888,"94":-0.10593119071201455,"95":-0.22239615724160075,"96":0.06259916337076443,"97":0.050368745516378696,"98":0.2932755481254969,"99":0.1662882146086578,"100":0.053195569787493166,"101":0.25970828680848634,"102":0.052585548454282365,"103":0.07923988679105773,"104":0.02666401675253809,"105":0.01183743392249131,"106":0.010870619786679562,"107":0.0704411973425769,"108":0.10411069475823569,"109":0.1998943013702608,"110":0.2890764251258293,"111":-0.19819430577426,"112":0.24855849192734292,"113":-0.0602787546906872,"114":0.03425181513494388,"115":0.11543814969015423,"116":0.17610928100340295,"117":0.26085985387660027,"118":0.17176048101062297,"119":0.14995195323737373,"120":0.022827314528932715,"121":0.08695687015448375,"122":0.10702224062680864,"123":-0.1371690271655111,"124":-0.10749473153002725,"125":0.25713912111303017,"126":0.20596228002418573,"127":0.019818817839006027,"128":0.21210458863175885,"129":-0.030977337164409327,"130":-0.13863005256609834,"131":0.10067520550792461,"132":0.1512280445020938,"133":0.2563056714377768,"134":0.13999926948372615,"135":0.1622312025089224,"136":-0.0917809287570427,"137":-0.04545860354704342,"138":0.08303498984626168,"139":-0.21478268844413473,"140":-0.15138664159051776,"141":0.08096215033227286,"142":0.16366666540683816,"143":0.20658228050528973,"144":0.09531676983339572,"145":-0.13379814554688457,"146":-0.1275398383673241,"147":0.09746078271160917,"148":0.12970668315446374,"149":0.19166323654653794,"150":0.18493187632633568,"151":0.03959400955796992,"152":0.07240520380104347,"153":-0.10153954361736418,"154":0.10443836757531935,"155":-0.16970492397049544,"156":-0.06821576218148277,"157":-0.10164854550998438,"158":-0.055440294104862856,"159":0.1090854462721909,"160":-0.06198395681458498,"161":-0.09267545081992874,"162":0.11592739326468686,"163":-0.08826978125645515,"164":0.17087015348817555,"165":0.07926948449639751,"166":-0.02484979632031346,"167":0.0074043482438148,"168":-0.005523848629681523,"169":-0.06977038028249292,"170":-0.07541201129384094,"171":0.008324113360824788,"172":0.09577531876414463,"173":0.1321767735103118,"174":0.11991901874820204,"175":-0.19930626696630624,"176":-0.0011244224325468867,"177":0.02664829122741999,"178":0.10788240450714072,"179":0.07524827287395228,"180":0.05869916651004334,"181":0.07441636787982282,"182":0.13056110754072184,"183":0.10620549199428608,"184":0.08398938930042697,"185":-0.0243233090600242,"186":0.13480831960202638,"187":-0.15516854967181892,"188":-0.17741752076154066,"189":0.17744591979195887,"190":0.3569255328971579,"191":-0.03173267381949197,"192":0.05108720173324681,"193":-0.04605588432936421,"194":-0.12789954252262956,"195":0.06690000497762778,"196":0.08765225846056607,"197":0.20180960846539134,"198":0.12350028779235925,"199":0.005658148884928792,"200":-0.07679512389680682,"201":-0.09177014354608362,"202":0.12869838272257556,"203":-0.14983681367875912,"204":-0.22525914792663343,"205":-0.0696929825614904,"206":0.08133526251600698,"207":0.03538965633615827,"208":-0.02795199829210707,"209":0.0695641117736883,"210":-0.10225069837776733,"211":0.04299027791471543,"212":0.025859672201362337,"213":0.16499930561813403,"214":0.07849776354981972,"215":0.09704516618832748,"216":-0.12484083471911904,"217":-0.09757815875583815,"218":0.015660926811977827,"219":-0.13259173541582955,"220":-0.060993537710789636,"221":-0.06338582041657499,"222":-0.004662783888793375,"223":-0.015919353945072046,"224":0.11336375030265008,"225":-0.015907656736301828,"226":-0.05170300330384635,"227":-0.03502861528660359,"228":-0.007965063269392012,"229":-0.026587104402871427,"230":-0.015641218723390964,"231":-0.06483630776825296,"232":0.03189940030617939,"233":-0.0921693712230825,"234":0.008992383511569479,"235":-0.10388395735853365,"236":-0.0415163152940488,"237":-0.08006484929158478,"238":-0.06738787341849975,"239":-0.020978559171384983,"240":-0.024524217312843717,"241":-0.06362154833594913,"242":-0.032444582532418685,"243":-0.033096907971359245,"244":0.016343874099404746,"245":0.11202258607147714,"246":0.063388182674386,"247":0.09705924391995446,"248":-0.08304991013969032,"249":-0.08044421355124556,"250":0.0804252278984833,"251":-0.061253278596653096,"252":-0.08375587346440626,"253":-0.034339043047651154,"254":0.2530995813820207,"255":-0.10986658757333627,"256":0.08005788873379789,"257":0.08713824358919876,"258":-0.16614192294042657,"259":0.03196928942572021,"260":0.06988768212665428,"261":0.11229304662728493,"262":0.054551395989701476,"263":0.1377685993683781,"264":-0.13376240181898283,"265":-0.21693431850951375,"266":0.07853105577047056,"267":-0.08480591156635665,"268":-0.23433906268197863,"269":-0.061825747639654184,"270":0.30074336749587544,"271":0.03123537625319568,"272":-0.13159630688555252,"273":-0.03165977285917737,"274":-0.10554493313422478,"275":0.026262977978524265,"276":0.00921033543880093,"277":0.1522104249709294,"278":0.1435008047497708,"279":0.007146042797825491,"280":-0.11864214897203204,"281":-0.11132043821793758,"282":-0.01342347829021194,"283":-0.09626006658908312,"284":-0.12081979355296361,"285":-0.0723793454663008,"286":0.06696128879358931,"287":0.06625019906305747,"288":-0.02782617284254536,"289":-0.05159108587386812,"290":-0.07695393184858657,"291":0.11248667913281281,"292":-0.11882768765522382,"293":0.05905625845279114,"294":0.06589577444566812,"295":0.016899110611930692,"296":-0.10755198818121067,"297":-0.1115024737839786,"298":0.046113900100838504,"299":-0.07594143341999346,"300":-0.10947162911390403,"301":-0.1041563214596644,"302":0.014305217121311584,"303":0.03701002104815867,"304":0.0010972255731228518,"305":-0.0258039033421779,"306":-0.08978029786527092,"307":0.0645880407683416,"308":0.02388226958768076,"309":-0.029679997338651034,"310":-0.02596671907472887,"311":-0.00048808829504582834,"312":0.0385005621069346,"313":-0.05392085141455144,"314":0.046693902909572385,"315":-0.0020067964627632443,"316":0.0031302221368071296,"317":-0.04623676572925425,"318":-0.09258348693165551,"319":0.04244890883890969,"320":-0.16034655791508515,"321":-0.03279640835025758,"322":-0.014687823655472143,"323":0.0009301688279732724,"324":-0.006741138126610306,"325":0.01448026950047787,"326":0.08762062019903409,"327":0.07015602385281772,"328":-0.11931078618387117,"329":-0.021603749322537495,"330":0.01950170858628342,"331":-0.06254807346541702,"332":-0.16544289234045395,"333":-0.05383309126389999,"334":0.21634906168135756,"335":-0.03689732367730897,"336":-0.0305169134660815,"337":0.047788744848201656,"338":-0.15374758166883312,"339":-0.024295717914272076,"340":-0.14447508857755748,"341":0.04197917140581867,"342":0.10943375713247852,"343":0.11468126602738014,"344":-0.1378270078820114,"345":-0.1017790308168955,"346":0.11707294119751538,"347":-0.011185054798718478,"348":-0.21281529540637575,"349":0.0750063757447781,"350":0.16120319036297176,"351":-0.018816761740420414,"352":-0.12155923830791655,"353":-0.11070595231794703,"354":-0.07291789878312407,"355":-0.05407758870864318,"356":-0.15908390597265498,"357":0.00944698156252449,"358":0.016794647245088844,"359":0.020073009569598177,"360":-0.1308389701624664,"361":-0.043524982634748716,"362":0.03174469009234366,"363":-0.019820120792510436,"364":-0.04838015651948315,"365":-0.14635675640980159,"366":-0.017516693019836077,"367":-0.05833778159303175,"368":0.03387674737111772,"369":-0.023804154562269628,"370":-0.12982759459739196,"371":-0.026521951295124947,"372":-0.10911752553329142,"373":-0.07005521067287442,"374":0.05306174250483425,"375":-0.019870721093529137,"376":-0.17237655123852608,"377":-0.07866014692893074,"378":0.029817780209510106,"379":0.10742108536266996,"380":0.05037070315247888,"381":-0.07505391000963832,"382":0.024308210044022345,"383":-0.06827562394271545,"384":-0.05879112178038964,"385":0.072587716399698,"386":-0.07505331469873948,"387":-0.026948549136855866,"388":0.02785068237761882,"389":0.09218849864417986,"390":-0.006302661240053379,"391":0.0245990365009785,"392":-0.0147412849260211,"393":-0.041546041406432525,"394":0.006421042567001725,"395":0.12127441146071008,"396":0.279777119904166,"397":-0.05150506862445636,"398":-0.09572577133345633,"399":0.07968704778180437}},{"sx":5,"sy":5,"depth":16,"w":{"0":0.16991296986868892,"1":-0.18052806873581878,"2":-0.15356964452322416,"3":0.1365583239406957,"4":0.06883157435137176,"5":-0.07121987563033594,"6":0.008644102005556882,"7":0.0049301572266904565,"8":0.14578635451001992,"9":-0.011233362661152433,"10":0.037032774325319484,"11":-0.27485514076943096,"12":-0.11359909057745493,"13":-0.275562300788206,"14":-0.09555349673208922,"15":0.2347595172851135,"16":0.06568174810551397,"17":-0.050191413616538165,"18":-0.07527156559731141,"19":-0.07126495655231553,"20":0.11899436980863734,"21":0.05424905597708424,"22":-0.03670473011586531,"23":0.06934266243663084,"24":0.1365328750159532,"25":0.15421751997339525,"26":-0.10583222832834618,"27":-0.1285943714335887,"28":-0.07460319372731734,"29":-0.3377554400585426,"30":-0.1298263429084287,"31":0.07301982458766025,"32":-0.014496197925225931,"33":0.016793877878717826,"34":-0.11458304579795266,"35":-0.04804313897362417,"36":-0.009165809145803297,"37":0.13796454517558748,"38":0.10826310605107328,"39":0.03362459491772434,"40":-0.1079303940327131,"41":0.03617949036214342,"42":0.03997170690101007,"43":-0.05183101313073746,"44":-0.12638282497959483,"45":-0.17940951103301134,"46":0.06249183619963207,"47":0.06943489545011094,"48":-0.1114067340924143,"49":-0.04550125173099166,"50":-0.09199662771457086,"51":-0.054770257736728126,"52":-0.0956723224446028,"53":-0.01785440648710102,"54":0.07809625972835417,"55":0.08150561353003516,"56":-0.10422157417284447,"57":-0.0549514781163112,"58":-0.013282505354997956,"59":0.016143555134360183,"60":-0.003850014773402941,"61":0.07318860868309078,"62":-0.0046326334028429055,"63":-0.05866124629362167,"64":-0.10524691160649954,"65":0.05539720378747633,"66":0.031746140493735524,"67":0.049284894639343706,"68":-0.14234205065416441,"69":-0.02468479087188521,"70":0.07313922121190333,"71":-0.031089238057323807,"72":-0.047148445375795524,"73":-0.09652015764580195,"74":-0.05567610722888249,"75":0.028794118374277745,"76":0.018666284187388072,"77":0.03252699537417062,"78":0.029059307379394092,"79":-0.004860835710670098,"80":0.14753678491490516,"81":-0.11181223262183326,"82":-0.023221800925920542,"83":0.08851624420747725,"84":0.018515364409805956,"85":-0.2046460630649039,"86":-0.06528514638042189,"87":-0.006491425590826457,"88":0.13823898701673035,"89":-0.051093497354814846,"90":-0.061328170085424225,"91":-0.05476337735858814,"92":-0.043461071653938546,"93":-0.07473586283872051,"94":-0.12846258505221642,"95":0.08829392928856519,"96":0.1318954090758753,"97":-0.11933157600046045,"98":-0.012921593923467558,"99":0.07361161990011811,"100":0.21916831954858979,"101":-0.13087126343934544,"102":-0.10973109577697657,"103":-0.11217940056969644,"104":0.2529330787688143,"105":0.050247417549477744,"106":-0.14572341844746267,"107":-0.12371551134710758,"108":-0.03763740914739762,"109":-0.18310387953742857,"110":-0.2073325190264695,"111":0.12285608991946176,"112":0.07038026785967676,"113":0.08581706647685948,"114":0.014558444657550323,"115":0.04764407136064424,"116":0.0913466719829444,"117":0.13352318862324608,"118":0.061109747216249774,"119":-0.0876999121562014,"120":0.08421382966964627,"121":0.09526143145952282,"122":-0.03826454957989581,"123":-0.14440284490637562,"124":-0.08086749136941815,"125":-0.06781400062849963,"126":0.05618765266622542,"127":0.15332774337336383,"128":-0.08709483658524854,"129":0.058572902664236495,"130":-0.1087034921760894,"131":0.017676378348104177,"132":0.011998237609089224,"133":0.09058452696907765,"134":0.04207771079196716,"135":-0.03340402726893005,"136":-0.09217950150289404,"137":0.030897767812513258,"138":-0.019584783775217756,"139":0.03440379267764075,"140":0.06682741156593744,"141":-0.04272002960268641,"142":0.011593125786487635,"143":0.14316926007557032,"144":-0.11644860512850584,"145":0.09287037670781453,"146":0.08644635070906226,"147":0.008477914116951762,"148":-0.06771820926447303,"149":0.07041793051411163,"150":0.004240321072319293,"151":-0.0028918019554339774,"152":-0.08559772567239284,"153":-0.0278007677968311,"154":0.01753968284927856,"155":-0.0018441519043265794,"156":0.02854458109286786,"157":0.02754597651873954,"158":0.09688484516798414,"159":0.04857324117113558,"160":0.018905656780607995,"161":-0.011219715336286544,"162":0.007915755969443378,"163":0.07168671751338432,"164":-0.10186505518084622,"165":-0.16518985775425798,"166":-0.02915889730138375,"167":-0.13533118585854312,"168":0.06188849773424515,"169":-0.05180863678333804,"170":-0.011164544219755311,"171":0.12645769248769087,"172":0.008421881234428183,"173":-0.04975263046618154,"174":-0.02801752543675698,"175":-0.18685025426227664,"176":0.061310862992348614,"177":-0.0921142629622434,"178":0.04410258920816262,"179":-0.040428030085332904,"180":0.09151522801591944,"181":-0.11172846413378963,"182":-0.1596071684616124,"183":-0.21955912908298064,"184":0.26724577355874973,"185":-0.02873802271930511,"186":-0.1733247461350116,"187":0.015664069946216514,"188":0.02359903705662392,"189":-0.2854021074866957,"190":-0.21076985997327785,"191":0.02361430216256012,"192":0.07816750108591665,"193":-0.042424036234643116,"194":-0.06033661870943804,"195":0.07216274537755789,"196":0.22855731444198335,"197":0.06972380972809991,"198":-0.012332917771185285,"199":-0.08535983577492441,"200":0.1281672598433687,"201":-0.0658234212779871,"202":-0.06820653912613198,"203":-0.1265029151440208,"204":-0.17245826478476428,"205":-0.26542453735335125,"206":-0.09950160452096425,"207":0.12430142067316599,"208":-0.08352649541381027,"209":0.03287709067359867,"210":-0.041892009839121565,"211":-0.006322389832617317,"212":0.07821580800808754,"213":0.06523396262657867,"214":0.06834810632452924,"215":-0.09635216714567917,"216":0.01658471070712846,"217":0.052197113418092585,"218":-0.05930779073546176,"219":-0.05892765489392946,"220":-0.03631048823418714,"221":-0.19122318836260419,"222":-0.0579370315701839,"223":0.07620065843196637,"224":-0.16097977135946026,"225":0.05268545663744567,"226":-0.0748461786175785,"227":0.00927478781703642,"228":-0.026958634918822878,"229":-0.0021740285605887665,"230":-0.06054922337054262,"231":-0.0750439373055341,"232":-0.010425481475395595,"233":-0.053981022304338315,"234":-0.002882129597054974,"235":-0.073964662291091,"236":-0.034872472172084716,"237":-0.02607731458810145,"238":0.00587892699062341,"239":-0.014613833362377884,"240":-0.06496389107167642,"241":-0.02434333312214657,"242":-0.019569011952425337,"243":0.049849185225738175,"244":-0.08487623349210768,"245":-0.10928366059697127,"246":0.018169142075307874,"247":0.026963837376179352,"248":-0.04100247045741799,"249":0.008205142857952194,"250":-0.09712940196539266,"251":-0.03165835702012538,"252":0.16567182921203052,"253":0.07829086797729187,"254":0.0013571485937189213,"255":0.013737841598367807,"256":0.04801741898200696,"257":-0.07642851089951858,"258":0.06948132341771039,"259":0.01641355707572984,"260":0.09895097539235197,"261":-0.07630775295362091,"262":-0.04139541861052232,"263":0.006805373502472722,"264":0.13010938088966478,"265":0.026886294891720005,"266":-0.17055129122580362,"267":0.0025841564902301683,"268":0.12321854753639196,"269":0.04246183795613521,"270":-0.21382441420245096,"271":-0.062257757346090646,"272":0.16235632702606304,"273":-0.046433672105393654,"274":-0.009049817474471174,"275":0.0872233787051585,"276":0.18650033166189955,"277":-0.06250383598053569,"278":-0.048464178954485806,"279":0.034046186577372246,"280":0.154294688480236,"281":-0.009518868732612424,"282":-0.1289835309590062,"283":-0.06121821932263162,"284":0.0009820725356072687,"285":0.005537424347957282,"286":-0.1136960296066114,"287":0.11595198661484711,"288":-0.025642567325034893,"289":-0.0754954802226826,"290":-0.044176903289853006,"291":0.13947905165169178,"292":0.1631303087813775,"293":-0.03380684122195528,"294":-0.10310380282244856,"295":-0.026414279834074048,"296":0.06087106361670001,"297":-0.028219842564010438,"298":-0.036547553344500376,"299":-0.07064714160987387,"300":-0.11061471991986237,"301":-0.13067544494225905,"302":-0.11818336886163623,"303":0.102937706321611,"304":-0.02430135040643177,"305":0.06475241380528442,"306":-0.037635931773577,"307":0.05373013852494349,"308":0.07267020212657437,"309":0.050013620821843685,"310":0.05458769864688212,"311":0.0028551468211410577,"312":-0.008758095132902767,"313":-0.015533552263018653,"314":-0.059525335733328084,"315":-0.020040346065807596,"316":-0.04846368305427921,"317":-0.08444371816150922,"318":0.11570203554781745,"319":0.17982423007723053,"320":0.01986386147259633,"321":0.025431598473256916,"322":-0.11895033101894054,"323":0.10670924921521666,"324":-0.10482612870555617,"325":0.012763773345787162,"326":-0.02680493611804216,"327":-0.02347907177556391,"328":0.0339050931790159,"329":-0.07683035916405746,"330":0.11253031820647003,"331":0.008032030068352342,"332":0.04266359574489407,"333":-0.12223224995077464,"334":0.02389847732606917,"335":0.031145456381262423,"336":0.00430331917719362,"337":-0.014219684720438141,"338":0.053098238197468575,"339":-0.0037582695015759417,"340":-0.11057311492780005,"341":-0.04021906477354499,"342":0.018235157938168312,"343":-0.006740428861361579,"344":0.05990566124699839,"345":-0.04098667075603792,"346":0.07181674156687408,"347":-0.02456364913958278,"348":-0.04868488150588682,"349":-0.058973108810420866,"350":-0.14831019200708276,"351":0.030774682073768142,"352":0.08816388768569801,"353":-0.09142326913006141,"354":-0.044016277956945064,"355":0.039168160701662846,"356":0.025636150349846516,"357":0.16189483053558137,"358":0.01137907496786898,"359":0.05169489830623013,"360":0.024106948851993253,"361":0.033382246997774256,"362":0.09655383784238415,"363":-0.07230579126622885,"364":-0.0988891143499142,"365":-0.1375735280787221,"366":-0.14931534218664538,"367":0.1930909229608032,"368":0.06557772769405162,"369":-0.04335462669675957,"370":-0.2247459946757134,"371":0.0856353874746614,"372":0.0207659979177984,"373":0.1647648561393098,"374":0.04732186089517212,"375":-0.015435147634261381,"376":0.05028706961237871,"377":0.02590444067710122,"378":0.09842580069180823,"379":-0.2414474123486228,"380":-0.11979877090185397,"381":-0.2230427152048097,"382":-0.13698598929301536,"383":0.2471155885229995,"384":-0.10509989736391402,"385":-0.06418805825375887,"386":-0.11490836890992459,"387":-0.0031049383643149547,"388":0.025580942755700463,"389":0.23126891943865366,"390":-0.0607138511679641,"391":-0.006714579406013139,"392":0.05317980201449614,"393":-0.009083230573957504,"394":-0.07935280755999716,"395":-0.07581961439158609,"396":-0.05759732524256564,"397":-0.2724942865857869,"398":-0.053241763461922095,"399":0.25481064162897593}},{"sx":5,"sy":5,"depth":16,"w":{"0":0.045690570010330174,"1":0.15467393116240286,"2":-0.019166928241723898,"3":0.08731876739108005,"4":-0.027691270573774015,"5":0.2529042435555036,"6":0.0443238182852148,"7":-0.0024316225077926005,"8":-0.027844397883160742,"9":-0.03132622729484993,"10":-0.0593893329701642,"11":-0.09755517057919057,"12":-0.018821544363343365,"13":0.05959624134800266,"14":0.002279210976304548,"15":0.20623448343814077,"16":-0.018696016674810814,"17":0.07810945646249318,"18":0.13528796016511158,"19":0.11706002146332167,"20":0.12701186528245847,"21":0.19228265470752243,"22":-0.06436267451845751,"23":-0.03080113281871474,"24":0.056071692411357746,"25":-0.013292176255714456,"26":0.02788731563475598,"27":-0.012565709474242782,"28":0.008681268395300147,"29":0.022960880134681463,"30":-0.06571060828186488,"31":0.10057800085634704,"32":0.08853415897247399,"33":0.2692145244962181,"34":0.09718209684181357,"35":0.12869088500782,"36":0.1672793163771799,"37":0.3905562532391284,"38":-0.11070870784979368,"39":0.014153393668123229,"40":0.034348460161489784,"41":-0.010642830207080949,"42":-0.09263159153943475,"43":-0.02908774280005219,"44":0.05412386236292908,"45":0.043027242041942956,"46":0.03895005364619778,"47":0.27127671093898165,"48":0.0019892450573817315,"49":0.06667571775729292,"50":0.04133150388596202,"51":0.04524752624624644,"52":0.09240688918566578,"53":0.18581158084240035,"54":0.0774570932942812,"55":0.060195342366417895,"56":0.19556978657411012,"57":-0.07448247547998765,"58":-0.038851324942518285,"59":-0.18743528276174237,"60":0.028767219092452324,"61":0.021188756262807012,"62":-0.100069194058635,"63":0.10948149519345508,"64":-0.07753280930159795,"65":-0.024121878671807,"66":0.02128426581575714,"67":-0.04881944688255521,"68":0.0526420273310702,"69":0.08352070365673667,"70":0.04567916942023818,"71":-0.011196863858432762,"72":0.09438873672778426,"73":-0.005087041508249079,"74":-0.014738674136529064,"75":-0.08863499259817675,"76":0.1047622060857848,"77":0.08064093905794127,"78":-0.05323052942447893,"79":0.025807724735917015,"80":0.0692640999059328,"81":0.15743206770088647,"82":0.14774864082337408,"83":0.3101178624127156,"84":0.03752013997698324,"85":0.3117059407533903,"86":0.03741305036005962,"87":-0.1173590695555479,"88":-0.007539012640594261,"89":-0.0874125574580691,"90":-0.036449972717169765,"91":-0.01784711952161223,"92":0.004603203922825428,"93":0.06385665062152177,"94":0.032131759060891926,"95":0.18635221183866266,"96":0.02651401515857368,"97":0.07982597973158863,"98":0.1484093090392576,"99":0.21840207563138064,"100":0.21457755145000307,"101":0.23564041689785906,"102":0.10040687364883044,"103":0.12558524727597703,"104":0.05193298016405239,"105":-0.14045061148815083,"106":0.020860915102114966,"107":-0.1617047496407244,"108":0.0363937776640987,"109":0.09655869958996013,"110":0.12347451450702308,"111":0.17699955522282027,"112":0.16785676553721118,"113":0.2056887707403138,"114":0.016412953591626825,"115":0.20014027108500868,"116":0.36268224292279594,"117":0.4348123885857703,"118":-0.01415432958706849,"119":0.05000564793320414,"120":0.27316445487593644,"121":0.03829959364382346,"122":-0.012736384261004808,"123":-0.2319169198029354,"124":0.054426768290492075,"125":0.11088250605047177,"126":0.036228010830898126,"127":0.2619277581312127,"128":0.05386322276474806,"129":0.17680940429971276,"130":-0.021878451598905675,"131":0.10309600001730644,"132":0.15506934443496362,"133":0.3847999330799643,"134":0.03439965016462373,"135":0.004788797732551992,"136":0.24081406277156844,"137":-0.06577102107858104,"138":-0.015978754010478484,"139":-0.20071665118803372,"140":0.037015654991367275,"141":-0.05260834889436154,"142":-0.06972898975833342,"143":0.21982935303968426,"144":0.006611763437037962,"145":0.08288413898203749,"146":-0.04312620143598331,"147":-0.08051664620207381,"148":0.13865095225728077,"149":0.35816935516512105,"150":0.02502291233186055,"151":0.10643840165881253,"152":0.11731800946020177,"153":0.0584541225096483,"154":0.02920101554934826,"155":-0.04690950521459019,"156":0.09553314215287828,"157":-0.02041143560864597,"158":0.024883507908360906,"159":-0.005626454101828542,"160":0.10027841093774158,"161":0.1758548696547107,"162":0.2914172941037327,"163":0.29913688240987746,"164":-0.069546664645705,"165":0.35122114805741067,"166":0.02338663255767126,"167":0.07475350747517495,"168":-0.013706922580376407,"169":-0.12621376820565336,"170":0.05844571226293936,"171":0.14779821113329583,"172":-0.01635831308404847,"173":0.16023787342827964,"174":0.18807255575126108,"175":0.1522841562801978,"176":0.15909244208110895,"177":0.20378518256226244,"178":0.0977620591609449,"179":0.23714406623702625,"180":0.21655464039162636,"181":0.4915067670610735,"182":-0.01485586412168308,"183":0.11887537462813555,"184":0.050610050270628516,"185":0.025304017490914543,"186":0.10249134643746835,"187":0.0394383951867114,"188":0.016235415304290294,"189":0.05557501729374343,"190":0.05373340567216146,"191":0.37489777024291465,"192":0.06489697353352283,"193":0.3108824305768585,"194":0.1209510436267362,"195":0.20708378090470184,"196":0.2777373304634465,"197":0.649564281786167,"198":0.026008757327444676,"199":-0.09656595049467626,"200":0.11189419525785681,"201":-0.043201296803895894,"202":-0.0736392125044527,"203":-0.10416026163925181,"204":0.06158636984464467,"205":-0.10336522973202074,"206":-0.059096867706759246,"207":0.32536475320368463,"208":0.0454808978906933,"209":0.10938798670851071,"210":0.17041413253467652,"211":0.04563395548681173,"212":0.21558954771810526,"213":0.5678547691574821,"214":0.07588328960355603,"215":-0.02175538111143967,"216":0.23572330146190854,"217":-0.046676579529737736,"218":0.001936922138398057,"219":0.0813308863963084,"220":0.07233331424782934,"221":0.025567960904743055,"222":-0.007992708651135699,"223":0.1438820867722096,"224":0.08376000427248197,"225":0.05280378801197319,"226":0.12285277673829405,"227":0.009795558561567544,"228":0.15461674971336928,"229":0.321444502173573,"230":0.06731645844514549,"231":0.09308090394722256,"232":0.01959811510254099,"233":0.07003176082138389,"234":0.033823261597766933,"235":-0.06451295387479856,"236":0.015201953475347906,"237":0.013079170489780155,"238":0.10545856958560983,"239":-0.003248851505686689,"240":-0.05945508003117617,"241":0.22824417700180163,"242":0.10884289369991586,"243":0.2802891501526243,"244":0.04789999402011037,"245":0.4340140676562979,"246":0.04198812987579683,"247":0.04159892778547914,"248":0.012167023880479515,"249":0.07704794436163136,"250":0.04598310089924677,"251":0.13400681666832953,"252":0.16143532505546382,"253":0.1695270983785125,"254":0.12458141060290587,"255":0.2199718106260753,"256":-0.08905159378720579,"257":0.43133309913366685,"258":0.22951913286729678,"259":0.18998835130767497,"260":0.012550731832899445,"261":0.6402786608811694,"262":-0.0010754088841883535,"263":-0.0686014671717978,"264":0.012174240160880196,"265":0.03832575211146562,"266":0.10826314292682668,"267":0.1749675749672668,"268":0.2100388452062723,"269":0.16716874859177408,"270":0.042043571011082546,"271":0.3620862056620365,"272":0.02638474950359428,"273":0.22448158704801674,"274":0.33950306046912415,"275":0.1978779530787842,"276":0.19478636913050965,"277":0.5576343174575742,"278":-0.0770976994360762,"279":-0.12170264963167449,"280":0.017481862494057768,"281":-0.12940472020303606,"282":-0.02915547576502222,"283":0.09629785954823437,"284":0.20946019466176766,"285":0.16832290852604892,"286":-0.0820133625896935,"287":0.23247987800049472,"288":0.05229222740579261,"289":0.13518158463810137,"290":0.19594902588933444,"291":0.04380181645614675,"292":0.22793083325787616,"293":0.376991858787069,"294":-0.025582984901060424,"295":-0.002492132082306648,"296":0.11993493904298982,"297":0.07736483003076618,"298":-0.05062712018568882,"299":-0.047840859773707466,"300":0.1927983526799914,"301":0.26502995430704807,"302":-0.013260060418968269,"303":0.024404383451289726,"304":0.04403039891656659,"305":0.11596609261571064,"306":0.03638120093018362,"307":0.038967253648464026,"308":0.12989191119829693,"309":0.34071046198584837,"310":0.03314578418313509,"311":0.06331168424821859,"312":0.040299792404061105,"313":-0.0091500661836614,"314":0.04383085446753922,"315":-0.026348533423026833,"316":0.013402681443021178,"317":0.12659578003996272,"318":-0.01155045242057481,"319":0.11217388226884613,"320":-0.0930774314378596,"321":0.2718083069807282,"322":0.1933718951759195,"323":0.16899401960930346,"324":-0.049578839203225505,"325":0.48316906838518736,"326":0.06957104056569074,"327":-0.04481537446979471,"328":-0.12641935997674383,"329":0.08680893234867479,"330":0.052478642775443035,"331":0.15247128421316564,"332":0.10159826037326031,"333":0.18835415158366658,"334":0.04720699688385954,"335":0.26772664338716534,"336":-0.173784659478953,"337":0.18875822024609168,"338":0.2413480673781274,"339":0.18120744049688098,"340":-0.03563099874812034,"341":0.5528127887797288,"342":0.021541603053608676,"343":0.04218564416443963,"344":-0.0815940656904011,"345":0.009340305808585731,"346":0.08391600789618454,"347":0.15928700993345124,"348":0.11407931023229613,"349":0.20735108644401834,"350":0.0566073073395724,"351":0.17656941555875513,"352":-0.01433629107840171,"353":0.10266574551995855,"354":0.28411816268730655,"355":0.20245645559858857,"356":0.05341350669590933,"357":0.2770485386328187,"358":-0.03612490380885615,"359":0.0067495470097376185,"360":0.014836522080272117,"361":-0.12147649619747401,"362":-0.05356973409997737,"363":0.08260648390649479,"364":0.28109565688265864,"365":0.15104358319309996,"366":0.03832620450008395,"367":0.03581403126508842,"368":-0.03687585038524101,"369":-0.0015917705025903321,"370":0.02743977289400619,"371":0.08810148121216627,"372":0.30224582761100605,"373":0.32240856799203943,"374":0.011125330999443208,"375":0.07438973433579012,"376":0.09011772839907067,"377":-0.07480291619101455,"378":-0.0476302284451198,"379":-0.008398890824103951,"380":0.1277271028234846,"381":0.07490772511728679,"382":0.007748552322796428,"383":0.07109958184792142,"384":-0.07295011011242916,"385":0.07549162750879361,"386":0.022935330799614285,"387":-0.08674352496357998,"388":0.1481824402782068,"389":0.40453555086985327,"390":0.054437391656938845,"391":0.014666486124070038,"392":0.06292068266216691,"393":-0.09329630247306153,"394":-0.09899484023774302,"395":-0.014138483474201621,"396":0.055511221937511256,"397":-0.01006912033408932,"398":0.024865092452078505,"399":-0.03641712428064583}},{"sx":5,"sy":5,"depth":16,"w":{"0":-0.10762672176714547,"1":-0.02106274501184735,"2":0.020170711910746705,"3":-0.04401485596501569,"4":0.020256142315332435,"5":0.14036587873348552,"6":0.05692772646995309,"7":0.03956836158994715,"8":-0.026525566740485257,"9":-0.16592931976732175,"10":-0.07565713107570435,"11":-0.07988244639427189,"12":0.11009000097640162,"13":0.07885999542516892,"14":-0.008723666038079374,"15":0.046722404274813584,"16":0.06784098730017965,"17":0.03202269820035901,"18":-0.05780159072821901,"19":0.13444509998090234,"20":0.12859839024113331,"21":0.374267764047644,"22":0.08487711114642575,"23":0.05300748086084993,"24":-0.0073693010419334844,"25":-0.04243131150284476,"26":-0.06829356259255566,"27":-0.15466897180770808,"28":-0.017449760068947676,"29":0.08503932014087705,"30":0.13772248979360652,"31":0.092826945029295,"32":-0.05543540595369666,"33":0.05310623908596581,"34":-0.10051233806889771,"35":0.04159315365305404,"36":0.26322313542340475,"37":0.4107275111690567,"38":0.1096086414700114,"39":0.007715171426601438,"40":0.04245041776526569,"41":-0.058152647910604816,"42":0.009690256067498695,"43":-0.24993325243204184,"44":0.11547845027516863,"45":0.060045484434856806,"46":0.07095601675302109,"47":0.11294272422136982,"48":0.029330796248013675,"49":0.05628721780682729,"50":0.046746366275856155,"51":0.11435604826064764,"52":0.27237207312234224,"53":0.3535599103875659,"54":0.03749000827618851,"55":0.09048063485078521,"56":0.18053737127420058,"57":-0.04681006731460416,"58":-0.02182082407218964,"59":-0.22945773708432904,"60":0.032657842546090124,"61":-0.014026887644055885,"62":0.1650911274694887,"63":0.14338167939193044,"64":0.0404883709675488,"65":0.026702573594797538,"66":-0.12796449239396626,"67":0.017252117542696763,"68":0.15381997454444252,"69":0.3161870314467263,"70":0.03398885989572065,"71":0.03834025872924872,"72":0.024903008863166348,"73":-0.06411290636022994,"74":-0.041338763608829286,"75":-0.035953361614261894,"76":0.12795016865341996,"77":0.01155599956136782,"78":-0.014915669961628419,"79":0.0648525525238518,"80":0.028740144403938097,"81":0.17581334206650698,"82":-0.06138566666475158,"83":0.08306070935830681,"84":0.03458249964777066,"85":0.37535660017364153,"86":0.05026067098222599,"87":0.08656886171515932,"88":-0.004551835725702067,"89":0.014655448459576486,"90":0.15600214866603826,"91":-0.015867255610637607,"92":0.05048289884321152,"93":0.07275731656229892,"94":0.1352327160484574,"95":0.01130019040498795,"96":-0.025984458508595296,"97":0.16498696462724521,"98":0.003303227180632554,"99":0.0037565826517303408,"100":0.10760530232162502,"101":0.46521040492444565,"102":0.06794643429556499,"103":0.0867868540054828,"104":0.11666847833568467,"105":-0.10393236350210332,"106":0.12757133123247497,"107":-0.047616220715372165,"108":-0.0029325139209937204,"109":0.07730687175374423,"110":0.1385862528664397,"111":0.10788989306483325,"112":0.08441422940237785,"113":0.16315948440713157,"114":0.011549685929567831,"115":0.13484536763161617,"116":0.2041855136060708,"117":0.4648327737666435,"118":0.10077213430919477,"119":0.1039141680590659,"120":0.024456620108055365,"121":-0.04486025823119438,"122":0.07261289789003633,"123":-0.11167540433403955,"124":-0.0026057425452973393,"125":0.027452567427300092,"126":0.0774962826103843,"127":0.12574700733432326,"128":0.1783203283120862,"129":0.02842648079063501,"130":0.01429128516790158,"131":0.01355236538154428,"132":0.2661433259378712,"133":0.4136048001312908,"134":0.07236681415620928,"135":0.09858558871567599,"136":0.13220301197526996,"137":-0.020440285553113915,"138":-0.12805214476312074,"139":-0.15164638111948134,"140":0.09084018137500649,"141":0.03184200762757345,"142":-0.024313533209252555,"143":0.26676657686080985,"144":-0.12324300965226001,"145":0.24138862199200672,"146":-0.08722357881457252,"147":-0.013909600649800104,"148":0.14693814821292503,"149":0.5222022185621915,"150":0.23351351559718714,"151":0.06378716676896162,"152":0.12021454062410714,"153":0.04227309430216969,"154":0.013173365269469316,"155":-0.04565301080863859,"156":0.1428125121591796,"157":0.000052070920749311086,"158":0.10697013021962624,"159":0.09439276824812382,"160":-0.1511384008163936,"161":0.21294928359691737,"162":0.01443380962382728,"163":-0.03052833867311477,"164":0.08975590126994473,"165":0.5165698132226196,"166":0.14998150208788588,"167":0.015368710823822417,"168":-0.016439395562906522,"169":-0.06425304621934191,"170":0.019580412889763768,"171":0.009722749212013547,"172":0.0044672987643317764,"173":0.0591536959792033,"174":0.15863111372530306,"175":0.1578653108932098,"176":-0.1401943918691574,"177":0.40729320732192487,"178":0.04150983925132163,"179":0.05182484610932608,"180":0.039899351497316174,"181":0.6364604843427486,"182":0.06500222774946915,"183":-0.015889129354370434,"184":0.022833848513037863,"185":0.03736984585594981,"186":0.08922037906334726,"187":0.17098387116078587,"188":0.054771526047291255,"189":0.09371807686145145,"190":0.32691397276494155,"191":0.12111711502990329,"192":-0.1098232523996807,"193":0.24841436793081,"194":0.05949612337272451,"195":0.08951977804127949,"196":0.13114452547279332,"197":0.4891207084585038,"198":0.039395968229967306,"199":0.01672784298174389,"200":0.036699259435026235,"201":-0.1539542980514924,"202":0.11002596252167142,"203":0.10085859498778184,"204":0.029693554908265224,"205":0.0826288645622791,"206":0.15024832406702407,"207":-0.03154203597845289,"208":0.0881633659380388,"209":0.08824111563910474,"210":-0.003344301178890123,"211":0.012903126480015749,"212":0.34347482898712123,"213":0.441972062347999,"214":0.03490741688475969,"215":-0.052753578389389794,"216":0.12099494901047578,"217":0.06024051772599929,"218":-0.022706825669889588,"219":-0.05337335659469725,"220":0.13827094758480651,"221":-0.055208482831185894,"222":-0.13657042184672638,"223":0.11917183520693649,"224":0.007967693098950365,"225":0.034345410715958306,"226":0.09667474466803216,"227":-0.02087427410923815,"228":0.24081459129974764,"229":0.37514625724763057,"230":-0.05243189021672174,"231":-0.11412177501978968,"232":0.10330709077632662,"233":-0.15647521982985318,"234":-0.10041109207871689,"235":-0.10090577389748685,"236":0.06558959612544607,"237":-0.16613491248515455,"238":-0.03478257310181408,"239":0.1275632874510994,"240":-0.0827754032297576,"241":0.1315012470518355,"242":-0.06747395447742414,"243":0.029673897939214298,"244":0.12969760808958314,"245":0.35289006239566,"246":0.04428382458469422,"247":0.030098595366601925,"248":0.08896937881285837,"249":-0.020671183066770862,"250":0.06477815332026465,"251":-0.025101550836502968,"252":0.07705598460336255,"253":0.08564563056768405,"254":0.07189269533853782,"255":0.09755430006963933,"256":-0.14725373007873221,"257":0.3030602003822042,"258":0.07111510856495301,"259":-0.05417089182726534,"260":0.057481591204054244,"261":0.5799620014271741,"262":0.011024695859753804,"263":0.017964232450667063,"264":-0.04874474786501705,"265":-0.08981918607673535,"266":-0.002586282306421592,"267":0.09317480457341396,"268":0.19594372098033574,"269":0.19317943927569817,"270":0.2885219909350929,"271":0.10027637967936318,"272":-0.2948095669867589,"273":0.2547758133999556,"274":0.05158575720962007,"275":0.05311047370687292,"276":0.15367269968875844,"277":0.6165921176038491,"278":0.10427550255994547,"279":-0.10739428287415566,"280":-0.03673204191297193,"281":-0.08806498609138222,"282":-0.048577735088697595,"283":0.1311013910369019,"284":0.10894466418045377,"285":0.16261868041196198,"286":0.08616340747178672,"287":0.09921204960897591,"288":-0.08586111245741634,"289":0.08127744864171557,"290":0.2781402457221955,"291":0.10377409825906946,"292":0.21161153593917484,"293":0.450034743142702,"294":0.02068782811996803,"295":0.004602326688427725,"296":0.10982265970199118,"297":-0.09356466266147492,"298":0.01589425671987714,"299":-0.02042945293874301,"300":0.2998763740774795,"301":0.22725751260967672,"302":-0.1281263750097899,"303":-0.10622041139494856,"304":-0.027772038861692844,"305":-0.02681252206196169,"306":0.15205150818403787,"307":-0.03744678202142976,"308":0.2523765773125288,"309":0.17681983850549793,"310":-0.11640875092271266,"311":-0.06813000574495506,"312":0.09985142491399726,"313":-0.07849403581664975,"314":-0.1648477880716551,"315":0.05711065472976795,"316":0.08850178680480011,"317":0.06261589146594376,"318":-0.03345157951799043,"319":-0.005243997213147125,"320":-0.022672818932288917,"321":-0.07313729131446164,"322":0.09319408559134999,"323":-0.017361019368682215,"324":0.051972114535685184,"325":0.2674384765191225,"326":0.008540662612298426,"327":-0.05623717968821507,"328":0.07352028517016636,"329":-0.10253977153335685,"330":-0.0763440634683119,"331":-0.08918567433194191,"332":0.026582306524277375,"333":-0.00817831951372032,"334":0.06764655488481218,"335":0.01804483015347121,"336":-0.09866787353682101,"337":0.07375365688367652,"338":0.018564400486735806,"339":-0.07946039079455403,"340":0.11040836564553652,"341":0.38422901047707647,"342":0.06640042479120539,"343":0.021527177026768395,"344":-0.06014641759664228,"345":-0.12841129777679627,"346":-0.019602876692309527,"347":-0.06406791059172078,"348":0.1343425302865816,"349":-0.02201366363595573,"350":0.03294196457305283,"351":0.08462849588610304,"352":-0.1425683054510453,"353":0.09852328192510351,"354":-0.015484795663207465,"355":0.035890137760380504,"356":0.18159988937947508,"357":0.5387644885184202,"358":0.035465395719360485,"359":0.041423507328461076,"360":-0.03565204919559223,"361":-0.07226964563998817,"362":-0.07724320005469544,"363":-0.004989380695154408,"364":0.06476344521014712,"365":0.1439632519774843,"366":0.1055645933057224,"367":0.10599448983144419,"368":-0.2664145938923169,"369":0.1305561416093511,"370":0.054350624186190334,"371":-0.020260579591462158,"372":0.1562377589189219,"373":0.4033637153897749,"374":-0.01579398551004967,"375":0.10941159809087402,"376":-0.012527257120631201,"377":-0.009720567689139382,"378":0.006000119823717342,"379":-0.05255466349388547,"380":0.19600413466731909,"381":0.17559525813234517,"382":-0.01603861801976481,"383":-0.009860455339752801,"384":-0.06416664041160676,"385":-0.11061397364148794,"386":0.08482362790952759,"387":0.041133096127409875,"388":0.14635589577884944,"389":0.14465791668656314,"390":-0.115098594279269,"391":0.04938752644755357,"392":0.07458155173628768,"393":-0.10897621232127803,"394":-0.2555368761373055,"395":-0.10449932752232843,"396":0.1268282181894374,"397":0.13626350069062412,"398":-0.07620550008234807,"399":-0.05849921362713824}},{"sx":5,"sy":5,"depth":16,"w":{"0":0.0217429828345158,"1":-0.004530457776239129,"2":-0.008095058728852815,"3":-0.05272083042802199,"4":-0.07516796451637993,"5":-0.00245749011187716,"6":0.1516514105207234,"7":0.04768304797312505,"8":-0.0029638003906114607,"9":0.05396996400990561,"10":0.13008684013326766,"11":0.10977649802350108,"12":-0.11523804056335178,"13":0.1488061958227368,"14":-0.06873805728162469,"15":-0.1325195420756321,"16":0.17366627851162086,"17":-0.0670195029882097,"18":0.04178571236807664,"19":-0.0770356487362738,"20":-0.06462723091130881,"21":-0.0823098345809323,"22":-0.0638083676289778,"23":-0.13212319631378247,"24":0.06085177766792633,"25":0.04911755491184426,"26":-0.15990412139108,"27":0.07877107129735379,"28":0.02510135211210238,"29":-0.04297740716643973,"30":0.009382806311424446,"31":-0.045917673537501986,"32":0.20830733927259185,"33":0.02472744317992283,"34":-0.010664722149958153,"35":-0.1308469491311115,"36":0.02658214705997792,"37":-0.03872057473592476,"38":0.13236215120632183,"39":0.0993465141215715,"40":-0.1576091687135156,"41":-0.0363351121740595,"42":0.19326254088207367,"43":0.018804677208464064,"44":-0.07757374049333499,"45":0.15791545524736858,"46":0.010340829217899533,"47":-0.015632657450669742,"48":0.10183090697057204,"49":-0.06923502033341579,"50":0.21564297772175578,"51":-0.005545212035956791,"52":0.037972613923760105,"53":0.03098415315896323,"54":0.015257748803673211,"55":-0.08492196947866451,"56":0.0951636793668183,"57":0.06976216973370339,"58":0.11244247963967652,"59":0.1380385723276306,"60":0.08120158099710868,"61":0.0295914639489764,"62":0.13917479330043325,"63":-0.038429611561229274,"64":0.19036689157246653,"65":0.01672071541347757,"66":-0.08814782578804238,"67":0.025057949608011915,"68":0.029316528882569012,"69":-0.013749686156093772,"70":0.05934558408075056,"71":0.11817563462948869,"72":-0.03200062045569274,"73":0.015109100449686231,"74":0.028170586496084848,"75":0.08417622928153229,"76":-0.08634686096185444,"77":0.02447139595781042,"78":0.04898799785353308,"79":-0.04920576195026398,"80":0.10820199740347582,"81":-0.0020744349883102583,"82":0.05480695673336089,"83":0.05033064296540197,"84":-0.0003272621884682726,"85":-0.16470461477865453,"86":0.039157717320613156,"87":0.0961545121854156,"88":-0.030844044175059836,"89":0.12306741571781185,"90":0.04534143218131374,"91":-0.07957024312842172,"92":0.039047522404884606,"93":0.15165040872674695,"94":-0.09358488087227448,"95":-0.024755923412081757,"96":0.10563003309290832,"97":0.05555457604247274,"98":0.10992468430510945,"99":-0.07064670498545185,"100":-0.0016268279435983815,"101":-0.16711252212782088,"102":-0.05044461382358697,"103":-0.16441998856959641,"104":0.10724146869381208,"105":0.09672403530013889,"106":-0.14414619723373967,"107":0.09138923552977239,"108":-0.0018600150791625305,"109":-0.020173198316576976,"110":0.035650707837974444,"111":0.015728104923512617,"112":0.13601727673479047,"113":0.004120861354629144,"114":-0.02067151024509871,"115":-0.058751459212905636,"116":0.04154775956367823,"117":-0.10753209331046301,"118":0.126089019276628,"119":0.039120539113443376,"120":-0.07892487953276321,"121":0.11064262994112603,"122":0.1039157746152841,"123":-0.09506283513874289,"124":0.004191944428971871,"125":0.028809496166585485,"126":-0.022131576186026607,"127":-0.032554730798845286,"128":0.17956874555250493,"129":-0.10867740961056209,"130":0.14047452980946953,"131":-0.01681213306491373,"132":0.035051407979343994,"133":-0.1892066859898609,"134":0.055003225772833925,"135":-0.06681593655154264,"136":0.046299336795282274,"137":0.1560997234494851,"138":-0.007245272890668262,"139":0.03301874859411105,"140":0.09957212920063647,"141":-0.02497678286574193,"142":0.08109282461897364,"143":-0.01990715010000417,"144":0.022504762238162113,"145":-0.018935537328762988,"146":0.08664593080596868,"147":-0.08698778197395717,"148":0.0179478970711252,"149":-0.22734666936831102,"150":-0.05874573489970314,"151":0.07518232098373949,"152":-0.004765102578617848,"153":0.024795081344127168,"154":0.012754369074103968,"155":0.07568543003569897,"156":0.03758955065191379,"157":0.09500361263589165,"158":-0.022815800719094316,"159":-0.04903512234352583,"160":0.032711722572087,"161":-0.0021338203468496044,"162":-0.009499741501789144,"163":0.12314667926188923,"164":-0.09444474537396678,"165":-0.02807573235881272,"166":0.14591595236662777,"167":0.07902127776226832,"168":0.0052867979730001945,"169":0.050042341743429135,"170":0.12692777371754008,"171":-0.11004527778722625,"172":-0.1436026252741748,"173":0.045600694567862594,"174":-0.08377248133108275,"175":0.02984801448789359,"176":0.04260351743897193,"177":0.007982659199292768,"178":0.06900408071778436,"179":0.10941935522129757,"180":-0.049504756142552626,"181":-0.06875093749991903,"182":-0.03763579410594259,"183":0.008066069777958028,"184":0.07861313188062802,"185":0.15393486992761807,"186":-0.12631784161721796,"187":0.10068186083781071,"188":-0.14097516840634966,"189":-0.1356490395501278,"190":-0.057215056882453125,"191":0.039258464819057835,"192":0.07903684186620076,"193":0.07655447745617461,"194":-0.15069855900915818,"195":-0.01302952770207064,"196":-0.09047429049814718,"197":-0.06173131485883068,"198":0.1659540409630896,"199":0.14546495564577053,"200":-0.15296755901870715,"201":-0.09683825791254846,"202":0.05956379731723813,"203":-0.05233413811360772,"204":-0.15253318677411587,"205":-0.03975817855488046,"206":-0.0547329093598031,"207":0.04404386771801951,"208":-0.013140192081387779,"209":-0.0985762490709154,"210":0.19104957276113818,"211":-0.008841746750868474,"212":0.026768286752221034,"213":-0.08406825687482468,"214":0.060594962965228594,"215":0.07895335391600512,"216":0.1165106915804298,"217":0.0888025748176645,"218":0.10072487422872194,"219":0.09157718835858505,"220":-0.12428169580774523,"221":-0.052779679336422726,"222":0.11808587969051364,"223":0.005738953841813795,"224":0.028353412897314818,"225":0.000006524533448926414,"226":-0.09687347541879796,"227":0.023907587077958137,"228":-0.051508584789622544,"229":-0.10267709320916656,"230":0.05971399864492033,"231":0.08058099176621847,"232":-0.019603295742722397,"233":-0.015650371210094174,"234":0.14722600804682343,"235":-0.05126546269305964,"236":-0.21291397791861608,"237":-0.03275213196589527,"238":0.015284349363007278,"239":0.06712067699377462,"240":0.08583009270017697,"241":0.003985596833340935,"242":0.07205696008556532,"243":0.10257344291545951,"244":-0.026634669643277143,"245":-0.24787174370287357,"246":0.04952767384126011,"247":0.047528140138942666,"248":-0.08513444073576679,"249":0.07413562317967799,"250":0.1141708248405609,"251":0.0516465077923991,"252":0.12509080305136003,"253":0.1404184364807227,"254":-0.10767387530073796,"255":-0.0464028174264759,"256":0.06211973679635755,"257":0.13294940433228888,"258":0.13749605427583275,"259":0.011372869314765265,"260":0.018311605469773413,"261":-0.18314304575120302,"262":-0.10312706171110751,"263":-0.14779915015730827,"264":-0.016138257390105683,"265":0.055931530298377406,"266":-0.18814042075195866,"267":0.22082120486896312,"268":0.07262371811917942,"269":0.02892391873694693,"270":0.023529591620764834,"271":-0.06345495265318041,"272":0.10324999114533503,"273":0.13908324525932564,"274":-0.10715173459461257,"275":-0.03680585130105069,"276":0.04510777421292687,"277":-0.11377728997653141,"278":0.033897753752839405,"279":0.08826449504726795,"280":-0.08979944450732102,"281":0.11725152793837555,"282":0.11052700413055608,"283":0.08608643332717233,"284":0.19607402838310295,"285":0.15127584390956395,"286":-0.029701758875584326,"287":-0.055974215551334916,"288":0.13354892547119163,"289":-0.052740015014433844,"290":0.1981963233583339,"291":0.02916456819314435,"292":0.14354775616602833,"293":-0.08777026970835132,"294":-0.10664595463763585,"295":-0.020323894266703373,"296":0.06959438214608309,"297":0.2569146732456374,"298":0.030531941386053016,"299":0.15612307781028226,"300":0.19168368915451547,"301":-0.0003581055662034194,"302":0.008064991579889835,"303":-0.11415986436972773,"304":0.16629135586426938,"305":0.050716628222246436,"306":-0.03298997887317374,"307":-0.0936663168400128,"308":0.154021264332211,"309":-0.11997173924481842,"310":0.023310612408399108,"311":0.020683155796037887,"312":-0.036494090908341804,"313":0.08401862557359657,"314":-0.0014853247617317613,"315":0.1316530596977966,"316":0.15306824030507404,"317":-0.019604810267897406,"318":-0.0003761282880185213,"319":-0.06823552383816459,"320":-0.056166236527681906,"321":-0.06894928806189496,"322":-0.059192305228448,"323":0.06419953566824774,"324":-0.2097995772878768,"325":-0.07590524289072664,"326":0.07874674876613007,"327":0.21297066350927776,"328":-0.08805086965610973,"329":0.0952071188283087,"330":0.11335534022579202,"331":-0.20766799077199802,"332":-0.12197700116890217,"333":0.03667474107674501,"334":-0.08474104952182027,"335":0.05800738079813232,"336":-0.022882890083198625,"337":-0.051009890157248564,"338":0.09524290438352132,"339":-0.032206022984261645,"340":-0.07982625620387482,"341":0.025097710593814097,"342":-0.04183876026576536,"343":0.011904536921607263,"344":-0.03781722554481996,"345":-0.008166741479702063,"346":-0.03610248086784824,"347":0.09123821108326023,"348":-0.09433838740591427,"349":-0.10816212623401736,"350":-0.001547056904184801,"351":0.10855968504819677,"352":-0.04083850634858985,"353":-0.046650570565604454,"354":-0.11867262434491492,"355":-0.038512918521742996,"356":-0.20535867186829432,"357":-0.059140891486338505,"358":0.03244953945016048,"359":0.15764146644664023,"360":-0.13597038623077726,"361":0.0258885901713823,"362":0.1752547991615965,"363":-0.15106345627151296,"364":-0.21354252592285158,"365":0.04177370084519685,"366":-0.005665396070535692,"367":0.0503273582687067,"368":0.027819740069062016,"369":-0.158918437167678,"370":0.16159931121431192,"371":0.04691509165672185,"372":-0.06385727228149249,"373":-0.069627013589569,"374":0.060428988304317886,"375":0.034361818841067523,"376":0.10120637284964344,"377":-0.0043705204737865145,"378":-0.008160069927808952,"379":-0.05189825831328176,"380":-0.12184949907739523,"381":-0.06356729890734845,"382":0.0759639456684623,"383":0.016964474713849587,"384":-0.013957333335571136,"385":-0.024049030980546324,"386":-0.15698696226719938,"387":-0.019107353675786733,"388":-0.16242628446665522,"389":-0.04667707669438489,"390":0.12133638556780679,"391":0.026192775230185147,"392":0.011642218763432239,"393":0.05573923390769156,"394":-0.009357474207684844,"395":-0.15096288531238625,"396":-0.20255578232784444,"397":0.026345621363076298,"398":0.1425371470798063,"399":0.0462297201175603}},{"sx":5,"sy":5,"depth":16,"w":{"0":0.1681108084663056,"1":-0.016674331005538365,"2":0.15907626108476913,"3":0.05700501668331974,"4":-0.1989061741429441,"5":-0.2874184588855101,"6":0.0713186900229711,"7":0.1497367364901405,"8":-0.056600400492368794,"9":0.13685209588911826,"10":0.04048211913803827,"11":0.1307988161812851,"12":0.16222112142081554,"13":0.11944914758142135,"14":-0.11532655259328886,"15":0.1410003518352119,"16":0.14856777942167967,"17":-0.03801254370760871,"18":0.14276849965403599,"19":-0.04972166637534081,"20":-0.23947467698888147,"21":-0.2797302564192411,"22":0.09589632298402966,"23":0.07819720517141847,"24":-0.02178011544505654,"25":0.15325697104892327,"26":0.055501813775056114,"27":0.1098508628238301,"28":0.07015095886234428,"29":0.14504683163569257,"30":-0.11587648247970188,"31":0.19305735992596093,"32":0.12840531396800245,"33":-0.09442424643017178,"34":0.04935728486815025,"35":-0.14382632595941042,"36":-0.20769354375781987,"37":-0.31695618000801146,"38":-0.02329738792281536,"39":0.09768224639730269,"40":-0.1174099383600656,"41":0.10130559858415807,"42":-0.08062222509872091,"43":0.054501973062322275,"44":0.1612290276083952,"45":0.11072030561145639,"46":-0.3601030216055386,"47":0.012667880348968187,"48":0.18791930913151197,"49":0.05795100026243971,"50":0.13943894711624627,"51":0.12216583409492816,"52":-0.27559600229179293,"53":-0.24024960846753518,"54":0.04114144720247023,"55":0.0801908784196267,"56":-0.10457992877371552,"57":0.2129966482893898,"58":0.14968884750802539,"59":0.1316175522067535,"60":0.11144662459438474,"61":0.11991381068935987,"62":0.13434215578411873,"63":-0.06480711240359902,"64":0.2120048680438208,"65":-0.04217638222803206,"66":0.1251911894243301,"67":0.1938237048582664,"68":-0.13131533206972443,"69":-0.2839043726808623,"70":0.03292353723048397,"71":0.1204317334259149,"72":-0.05301209343458161,"73":0.19194567829630652,"74":0.05819100967118135,"75":0.1301015422968883,"76":0.028138967687747537,"77":0.18578033726670404,"78":0.026804604420862955,"79":-0.032881995623301824,"80":0.22685631504253598,"81":-0.026912511883391093,"82":0.05948200926897575,"83":0.10393030402376699,"84":-0.08751706841280749,"85":-0.3003568970245101,"86":0.12097875593473403,"87":-0.04317076044884681,"88":-0.02147411389317513,"89":0.11125890495005217,"90":0.06363605721954507,"91":0.05381125264292922,"92":-0.001862232511743714,"93":0.044340369773862416,"94":-0.18840411487475525,"95":0.0708835251354662,"96":0.18424674086630763,"97":-0.04038683398017154,"98":0.014508149979530259,"99":0.08466023051411826,"100":-0.23410798632785948,"101":-0.3071620988327384,"102":0.02220074208373515,"103":0.12998788017852028,"104":-0.07686708426927306,"105":0.1229104588313795,"106":-0.004213692292242789,"107":0.049737459276591074,"108":-0.17112639297773008,"109":-0.01950528256830165,"110":-0.10332726180851456,"111":0.10305613583841608,"112":0.2005462926957854,"113":-0.17674978349740464,"114":0.12195392610228924,"115":-0.053156301151538785,"116":-0.20085432053694507,"117":-0.3820214500490295,"118":0.0013752340672698704,"119":-0.014853318357669947,"120":-0.03330961290941968,"121":0.15390249047622853,"122":0.016699763661127583,"123":0.05633029523332876,"124":-0.02124325407221117,"125":0.015791115862553516,"126":-0.36837955162162617,"127":-0.11011863985154298,"128":0.276453597668548,"129":-0.01909029062990189,"130":0.228656493235085,"131":0.10084929634887173,"132":-0.2395044738229919,"133":-0.4131849549558802,"134":0.01797294967088928,"135":0.07984039159906987,"136":-0.02465478740934026,"137":0.04430188622005035,"138":0.2134085043567525,"139":0.15662776416527355,"140":-0.07169182430591528,"141":0.08661495586007747,"142":0.058249794374475174,"143":-0.1007263164155941,"144":0.18137493044566502,"145":0.009995685160603498,"146":0.02304284623583867,"147":0.11921005289131568,"148":-0.2622604675900097,"149":-0.3309443777754327,"150":0.04798324701965993,"151":0.050998064814378484,"152":0.00183335905480463,"153":0.15835743297051175,"154":0.0432583699106385,"155":0.10337243800272984,"156":-0.12477531720641213,"157":0.04834625486137164,"158":0.0019264864420119733,"159":0.06289119447245686,"160":0.15798627177496952,"161":0.03657539655259932,"162":0.04455001938392953,"163":0.12420258562786621,"164":-0.22372057508281495,"165":-0.26780612816150695,"166":-0.09032014820421551,"167":0.0017736621804131936,"168":0.027535195669755572,"169":0.09520114315182027,"170":0.1225274305786207,"171":0.1549774260170979,"172":-0.08215269432700333,"173":-0.0044642356587570415,"174":-0.22463705059432382,"175":0.046889062994021694,"176":0.17154364391719548,"177":0.00223808185181298,"178":0.117928859213886,"179":-0.03936899877702773,"180":-0.22088612189630794,"181":-0.3689534232579445,"182":-0.03498026272234727,"183":0.06465364832737085,"184":0.048464956729106695,"185":0.04892670153184142,"186":0.024323478501548684,"187":0.1020010667886613,"188":-0.09345880982159559,"189":-0.029767500677768906,"190":-0.09748953285432006,"191":-0.00539539822661875,"192":0.08780819158475779,"193":-0.11607541391788283,"194":0.10856073723578888,"195":-0.04473838775114733,"196":-0.16202021346766718,"197":-0.3868259837124733,"198":-0.01247783041793004,"199":0.0429605887845488,"200":-0.10741787500969723,"201":0.11989229116279312,"202":0.03671969880496471,"203":0.06683052575788258,"204":-0.0478564147834875,"205":-0.026378035788902,"206":-0.3160443093657827,"207":0.040840947455887386,"208":0.15645095714787052,"209":-0.029829136259350335,"210":0.19344876880109949,"211":0.08253227641993842,"212":-0.2183118788820547,"213":-0.48730080950667665,"214":0.016333918522023372,"215":0.027139852186738377,"216":-0.07642705669392874,"217":0.15475041183796964,"218":0.18762812787959252,"219":0.13633589469094615,"220":-0.1421653355189605,"221":-0.054352957242747205,"222":0.09072693636605657,"223":-0.03395733391388344,"224":0.21311667455499805,"225":-0.014237426105136205,"226":0.03801968371586039,"227":0.11325561619191465,"228":-0.2537590315646013,"229":-0.428564261657341,"230":0.024458767480250387,"231":0.051532544430269965,"232":0.004790208778273484,"233":0.08461609962604812,"234":0.1428101465834375,"235":0.07396511814307052,"236":-0.064250587262409,"237":0.03458517571864113,"238":-0.013638925001856804,"239":-0.0036062677301316164,"240":0.1306366272043989,"241":-0.048516903593855416,"242":0.16301727795068333,"243":0.12532583812221662,"244":-0.11781424036700258,"245":-0.23979139184168627,"246":0.08241157980864718,"247":-0.03072020847912332,"248":-0.054787915587449595,"249":0.2013321689946204,"250":0.11047052633398409,"251":-0.02905871023815939,"252":-0.11298748477200019,"253":0.017597260516713748,"254":-0.18843039959859836,"255":0.18596074712647018,"256":0.13300306388957395,"257":0.06817973801169945,"258":0.0038948207679562292,"259":0.13645561148352997,"260":-0.046954429585496914,"261":-0.2741637033728173,"262":0.08958425065515266,"263":0.0672013175281559,"264":0.021495495138728754,"265":0.20744008383640475,"266":0.05200680165719666,"267":0.09086233236213591,"268":-0.029422517422039364,"269":-0.017202577184611594,"270":-0.08071523980284644,"271":0.11672693025615377,"272":0.11254290881524348,"273":-0.17961862534038017,"274":0.021492904080898517,"275":0.05549327393105689,"276":-0.20308239483429238,"277":-0.27867326072551146,"278":-0.004366463276797463,"279":-0.040306495374793104,"280":-0.04503274954287804,"281":0.25394486706312097,"282":0.008489830699434875,"283":-0.051830068505635866,"284":-0.15582119812473666,"285":0.04599979039873121,"286":-0.2063569668883594,"287":0.08282111043195682,"288":0.20788167988571363,"289":0.08135504790932334,"290":0.19490835677647714,"291":0.2552103254162052,"292":-0.1655977996839965,"293":-0.2559258834039787,"294":0.19525254473722609,"295":0.11404183049226807,"296":-0.016176688078021816,"297":0.15937185991197145,"298":0.09736155172719962,"299":0.17579506590430866,"300":-0.17387969664590247,"301":-0.027967075349627495,"302":0.13968317504918779,"303":0.06776381369382821,"304":0.13839087695095492,"305":-0.08158603321479913,"306":0.09076649291731291,"307":0.18972235951395636,"308":-0.06997153698671148,"309":-0.2451124982274917,"310":0.040813532637876085,"311":0.11216690676395778,"312":0.11407736282635025,"313":0.13143684742115389,"314":0.11879169185586164,"315":0.049717349347396717,"316":-0.10691252193536199,"317":0.03459194089606609,"318":-0.002182189414236881,"319":0.21607529751018373,"320":0.09153001359885198,"321":0.10557798537898891,"322":0.15687178517599057,"323":0.1382927455217714,"324":0.010199260178775767,"325":-0.30780031674224806,"326":-0.0246260442042641,"327":0.08139881301437187,"328":-0.01675052044675795,"329":0.12776211573500615,"330":0.06504158719654533,"331":0.10280327917997213,"332":-0.0673055233483697,"333":0.05655327501704126,"334":-0.11974684927304247,"335":0.2342644138757482,"336":0.15386132569288874,"337":0.014603280678395954,"338":0.06811172486903487,"339":0.1410362773786116,"340":-0.11971802214784065,"341":-0.3915743654630499,"342":0.022540466807040426,"343":0.047560513391378706,"344":-0.012598874333395021,"345":0.07633959850914297,"346":0.10303278873808672,"347":-0.008590710148305102,"348":-0.08670565963256638,"349":0.08345584975246852,"350":-0.09686885861383432,"351":0.17177795328691864,"352":0.25387897080613975,"353":-0.011150731543796972,"354":0.06284880972100801,"355":0.1795662312235189,"356":-0.12439659585939689,"357":-0.36811188470890616,"358":0.004842569081964928,"359":0.07190377273858611,"360":0.004947805861629953,"361":0.16533032301081751,"362":0.02498878123641075,"363":0.10841494706049337,"364":-0.04981142977818148,"365":0.1034656582599358,"366":-0.16405572554633674,"367":0.07845682537975669,"368":0.17569794060871063,"369":0.04898207603611967,"370":0.12473846420107527,"371":0.37315754529057643,"372":-0.0866941911562185,"373":-0.3201176918187111,"374":-0.00478066879930538,"375":0.17152907128216496,"376":0.023652894049170838,"377":0.07719509190358954,"378":0.14768329555848486,"379":0.15763275063887838,"380":-0.16336650346449355,"381":0.1900641107232068,"382":0.09758776865807224,"383":0.16588688850473313,"384":0.2725872261981019,"385":-0.0050572266221289445,"386":0.12359261534872437,"387":0.2701969628504442,"388":-0.037662527300365296,"389":-0.2064177006322482,"390":-0.012994062151469385,"391":0.026945149312308028,"392":0.009198946117607609,"393":0.024818498593682334,"394":0.075751743219387,"395":-0.010281183937395705,"396":-0.0820158751438572,"397":0.16596176908450666,"398":-0.02840934314232219,"399":0.22495268492590717}},{"sx":5,"sy":5,"depth":16,"w":{"0":0.08367544329775971,"1":-0.14256687375271057,"2":-0.09531843402153659,"3":0.01943772632680248,"4":-0.15235072046666046,"5":-0.23388904328168575,"6":-0.00996316651506008,"7":0.02574703220944461,"8":0.00014884229796763385,"9":0.062441543441052794,"10":0.09023172312505606,"11":-0.18680126097925956,"12":-0.16826899694498657,"13":-0.04553847645429445,"14":0.049811249513146666,"15":-0.027523510502567534,"16":0.0471509725025544,"17":-0.07699340289532013,"18":-0.03852517982557882,"19":0.03984355192421791,"20":-0.2694127326272678,"21":-0.27714391646919817,"22":-0.05623159039157584,"23":-0.0064234388362876225,"24":-0.015577584438603787,"25":0.06155315919583666,"26":0.021136582037960778,"27":0.032994615233152495,"28":-0.0200243303972323,"29":0.0027481279400419093,"30":0.04817220186437322,"31":-0.0462171244537337,"32":0.07357539085088455,"33":-0.1338812941810951,"34":-0.03935832640441785,"35":0.06422570853639321,"36":-0.1890819650735325,"37":-0.27329586094587216,"38":-0.08332034480850183,"39":-0.036023869581365206,"40":-0.10235831519955445,"41":0.018950525034188967,"42":-0.08095997310636473,"43":-0.06536380646841004,"44":-0.08957027796719093,"45":-0.13773159552903114,"46":-0.10562359524458895,"47":0.02308073581575249,"48":0.04036384182858185,"49":-0.09474214856413622,"50":-0.06380088170013858,"51":0.031451385876038,"52":-0.09040487803478282,"53":-0.35038269998137345,"54":-0.046076370614169776,"55":0.031321708589908404,"56":-0.13746944373081665,"57":-0.05876138232778347,"58":0.010671781035112913,"59":-0.0441870259696211,"60":-0.1631811270112165,"61":-0.0311766239167925,"62":-0.01730377209429621,"63":0.025642705142153523,"64":0.030192362373698847,"65":-0.20138491619424415,"66":0.06002584557054846,"67":0.10488496093107547,"68":-0.05018138983961434,"69":-0.3234746402670031,"70":-0.14057685325841365,"71":-0.06298577897145213,"72":-0.01775146125905383,"73":-0.060532906522289175,"74":-0.05751007523457021,"75":-0.11844935458493326,"76":-0.08549940119194159,"77":-0.15389009354987554,"78":0.0190985135305794,"79":-0.02474564532908409,"80":0.16812465370407298,"81":0.06793217651457033,"82":0.03776532958909377,"83":0.0353829544504714,"84":-0.09212001279743143,"85":-0.29893502672897476,"86":-0.09936701945272713,"87":0.004461166096258516,"88":0.03226945975342192,"89":0.07423049793300884,"90":0.08366358898652763,"91":0.2693628441434344,"92":0.0641341369646359,"93":0.006116296084776688,"94":0.02185561074471458,"95":0.023206666975442016,"96":0.16405879790000874,"97":0.03232255401867345,"98":0.05516785710108168,"99":0.038764038342207936,"100":-0.18162995663405915,"101":-0.312021699178618,"102":-0.022298386580141372,"103":0.10084662621004727,"104":-0.04528266797491034,"105":0.1533079963051162,"106":-0.04012064325086913,"107":0.3041340715319408,"108":0.06571787099873037,"109":0.014596394075040525,"110":0.01893658557518639,"111":-0.055966573033055585,"112":0.20492489682835538,"113":-0.017181303423669723,"114":0.008877383909087589,"115":-0.000011004521884146895,"116":-0.13052182161055123,"117":-0.44776985063428715,"118":0.03355394689626677,"119":0.060050679787768936,"120":-0.05877796362533424,"121":0.15277311926562578,"122":0.04058552814217926,"123":0.28036760058532456,"124":0.04312234517176777,"125":0.02017297746244557,"126":-0.2667719651506499,"127":0.004952205806604658,"128":0.13292961423378732,"129":-0.04605406365540694,"130":0.015412439102194309,"131":0.009677444436254384,"132":-0.0404704814839653,"133":-0.41383463318911157,"134":-0.05694465015017305,"135":0.20439335577160236,"136":-0.08014040850089574,"137":0.12943324972113424,"138":-0.00871853890462128,"139":0.3545923448620737,"140":0.1898588328502145,"141":0.01598162544122499,"142":0.009344605183109493,"143":0.05959875843188052,"144":0.16821495383526608,"145":-0.051215133406148826,"146":0.09105289348646779,"147":0.08384606260354244,"148":-0.05083067421479028,"149":-0.36147114154607757,"150":-0.016088388711157836,"151":0.12091456982768904,"152":-0.039004696040533963,"153":0.10951473804189021,"154":-0.06728035112611504,"155":0.2597275988431183,"156":0.08646471635229384,"157":-0.03157508006253999,"158":0.0006017090321418291,"159":0.0013477684671448673,"160":0.18171560848510682,